-0.7625604202759655,-0.8747041574223957,0.6252345022535553,0.9212550952407288,0.5495241596787388,0.5628414680882372,-0.8084911939435451,0.8650209192919807,-0.610005393293857,0.374057632125985,0.9935096970749471,0.9564034617317554,-0.8306854694637986,0.3343242204535639,0.6566399190642457,-0.6426925587481748,0.34008375088099574,-0.7726226859467855,0.7381371652152344,0.014438990234429516,0.019448699989958573,0.30994894295486586,-0.5880940470811764,0.12216679708280886,0.8876243200391787,0.8817516227521072,0.8072290755570568,0.15302725052605903,0.8600409741673218,0.11487079823971502,0.7372455853703179,-0.3682837193403825,-0.8500479834965644,-0.3902733834752821,0.2033144974154455,0.9254595850200096,0.01566125575004916,-0.44600692217989696,-0.6454166756976807,-0.39483919026187164,0.86501733851573,-0.16202315781251705,-0.8419432976685959,0.8360480115730814,-0.22914868888972403,-0.4725138813477267,-0.6472432294830113,0.0455058850990395,0.6109508395784544,0.651863584987236,0.7845670575560559,-0.7034996478335928,-0.7306066231535615,0.5697827679403191,0.027841977754461178,0.6338030005538648,-0.09543598514882912,-0.30585935278112864,0.354677034138208,0.30409606663229977,-0.01658843473811869,-0.8652786637346195,-0.0776081114398715,-0.7532016422495313,0.5697908228340574,0.4488389042937064,0.4085356811041088,-0.7215737908330482,-0.42673289492115635,-0.14467277204811807,0.777998385329819,0.839091403360468,0.7443327872111188,0.7818863657208179,-0.33456994489647796,0.005587030908837823,0.6261836218724137,-0.16003973138565972,0.156048119620942,-0.29362252611873274,0.748220355022049,0.32398479950439796,-0.4280852103304378,0.6606940305276747,0.3801408866696201,0.2566229759004135,0.17311911064979268,0.238084353913709,0.9330595701053505,0.8712435582646677,0.46135546340129835,0.35422475121809427,-0.2934828914173164,0.8527956985934766,0.6198302596545152,-0.06441389097100944,0.2203725857178342,0.731138334582776,-0.2994321164765046,0.5295665467318085,0.12313605450243603,0.38534946031366957,0.15336174049792187,0.5386670587795044,0.5817755179157382,-0.21719514034402082,-0.16850814005057696,0.5292453301969264,0.7314487366457845,0.3243633580832954,0.38209721059762514,-0.2594214633602481,0.7780365432067531,-0.03354900400563684,0.6842961840606285,-0.37644757342794777,0.47078563979423066,-0.7057965055797619,-0.5196504357273056,-0.47166903282051253,-0.029401505016518902,0.28160029960009686,0.5724647549916944,-0.5725956668333462,0.8748233064754704,0.137253534041082,-1.3260039686835596,-1.4979900484396595,0.4894125334075138,0.14350188389269208,0.590083476729012,1.1293312308525998,0.7791040953950885,1.54484323410362,1.906032822285056,1.061326432157689,-0.3791475468867412,-0.7958712797124631,0.25499071674519636,0.9599582622780004,-0.41941438140703324,-0.29999472908176816,0.25151334959437327,-0.7938744351252367,0.5973344427746325,-1.2070758780484372,-1.2781618667199515,0.1121126535907995,0.16382157877679004,1.3447645348357757,1.2765169072078812,0.4995830720432285,0.3731556698312607,-0.0853861329554983,-0.9942673757960784,-2.333564307227086,0.0568751148153352,0.32236912838925186,-0.08992867596928657,0.297379562669403,-0.9354126857616499,-0.36847938132339497,1.2284407751349495,1.2157690633497031,1.181201208049439,0.0781375937741198,0.7091824760847828,-0.7062652055146289,-0.37250814484510353,0.8592651315577765,0.33053546971933917,-1.1061441312529139,-1.2086847599406148,-0.07231376555719608,-1.3948492833628794,-0.027683787282609538,-0.8912773081029326,-0.6220782274181931,1.139471156377346,0.662026424092068,0.7512190716848504,0.6328774967366255,-1.7098703037478369,-1.202985679124919,-0.9779944679528193,-0.9400448570782647,-1.7951140175628726,1.3593805309184075,-0.13881337123503487,-0.4369690727541274,1.7185257816100443,0.5713185002139676,0.4245605401501063,0.12089310135352663,-0.32069751737726043,-0.5285567731167621,0.8013435406192096,-0.09433278474753166,0.9109702623947977,-0.7630468786592137,-0.2431534347538442,-1.0101048873128067,0.1589735575310946,0.875442885390402,0.7345258326473262,-0.6500388243215524,1.0390371572481745,2.812964023441232,2.17654734733372,0.00825902986696912,-0.6148457404950396,-1.385328404459945,-0.23452295899398895,0.2590320186346396,-0.14372695020535342,0.4226202388676453,-0.505087035078166,0.7572226769015935,-0.4225286743200131,1.4087380641694889,0.38327609569545024,1.7122396761027787,-0.3476632764198692,-0.4020532067048024,-0.5038327890696627,-0.37945086909357245,0.0286415831903469,-0.48565446496538683,-2.154216844267997,-1.0418726656920316,0.5094174557371821,-0.45913883400603045,-0.901475723235701,-0.9801669240378131,-0.45180148751480603,1.1093927987943606,2.1069095044580277,-0.8418561429113509,-0.0013965481985478527,-1.2788290063634735,-0.8393804406928369,0.16411089689085778,0.6939580980478325,-0.3454379074094963,0.5174079550327836,-0.5000805334523376,0.15901275317696903,2.0758166890898644,1.4766244831843338,0.39217372009154927,0.8583066912728801,0.5937356489027509,-0.7267943920620226,-0.22281363341707855,0.4804438736575579,-0.24245185138707925,-0.3707504900556543,-0.3213496005104863,-0.9659428459260824,0.44785538995494384,-0.782162462997691,0.17901567041996735,-0.20463246519724426,2.568268649144926,2.7152805999208947,0.49119831080337517,-1.957690947801161,-3.0808859917188363,-1.4987507665531241,-1.1978992428404234,-0.8815036827931462,-2.326087842530189,-1.2407374768982933,-0.2956423315485729,-0.4464898213103977,1.1927234813412524,0.5115617905461748,0.3064711407012626,-0.47022860308145037,0.15354350187260682,-0.020311572221603656,-0.7946722737154653,1.050708266779804,0.4267441538306776,-0.7321220114078048,-0.6397297641711479,0.6246995482026261,1.004812894292898,0.5434932164951882,1.0944161374027541,1.2347031778298758,3.1313406999354307,2.0929735298411583,-0.6118632904095306,-4.333359110589084,-3.6363805417227084,-1.0525129656024543,-1.3652985002082696,-1.4175657896864284,-2.237042376448832,-1.5596127778921804,-2.405308382475217,-0.7592273543379556,-1.5790248984300517,0.15571335525594185,0.8473669698578407,-0.40664688324047443,-0.10606106054576489,0.4309070284548791,0.04447616488314744,0.859481124611662,-0.43356251917182437,0.4420151866587846,-0.2856484548568586,-0.19139501937258183,-0.06554880659335872,0.5902620122497968,1.153324233712633,2.5385062692361178,1.068143833997012,0.4997570258555258,-1.527007560840709,-2.9105913719020324,-2.7988231503662493,-0.7693169062114756,0.07833980255031865,-0.4387371832870324,-1.9621788692428275,-2.0730755850670652,-1.4792206587474286,-0.5142094256775176,-0.4030876884849686,0.49018570158657043,-0.9838596457634783,-0.42395451683033086,-0.18329303320784046,0.507107020115656,-0.05916359473708311,-0.42186181625349667,-0.5146402354427673,-0.9839735227476065,0.4559089425747931,0.9971339491151691,-0.24847294454362762,1.9893613885162778,0.5893162910368367,0.9811642503643055,0.3987939531488239,-0.6631248891888746,-1.4363917135624928,-0.8040381410742549,-0.8669344222794652,-0.4607498413037499,-0.936719621122886,-0.9212266413371077,0.33895532041936216,1.1427282215597292,-0.6785475051768135,-0.5610527999531756,-0.43665651162373265,-0.2821782649018587,-0.9794724580810752,-0.7116439511210818,0.9246117873974119,0.18002814818847682,-0.41672776908359166,-0.6143781568229072,0.7772312284734121,0.6516012352868513,1.9039331889902558,1.7768228054145514,1.6654386873420286,0.8462792342335272,0.5498483040013359,1.72241651922873,-0.35638434727783047,-0.04637823944017285,-2.312328058480064,-0.6826564151572447,-1.7916878888681036,-2.858476724422815,-0.9701874322307551,-1.4204370638549824,-1.346609223047814,-0.5610584609435731,-0.40828171960024406,0.8821830548749486,1.2834039008300213,-0.16908576279299373,-0.19996755981753842,-0.9923310144198901,0.5388125757551421,-0.340315947735103,0.026171357235437533,0.6846275797311528,0.23935173944414986,0.9003893314009701,-0.05164656018122814,1.4575570587796227,1.3953592981609633,-0.46592590713620374,-0.9868502162188963,-1.4039059677888335,-0.8003446514938962,-0.5721125683856957,-1.5574690656925745,-0.6087913611204671,-1.8545704828116778,-1.3606660712176664,-0.5676806649138284,-0.5559657180618244,-0.123441791366287,0.04735718773399239,0.49948012337341463,1.1776927057763213,1.8782047934008443,1.103107619081232,0.5370745422769162,0.3539727385090902,0.6517560103174189,0.36263147713432864,-0.5519047843149479,0.23422695728892554,0.6859812018729124,-0.3960253210493386,0.8710661444566071,0.5551014510776842,1.0936508042664754,-0.3205673507778997,0.6408065558956867,0.5894796880848814,0.16513808932370047,-0.39354176452366324,-0.8970362724133643,-1.0823381083583201,-1.8202754710024425,-1.5321725318552486,-0.5385942443249981,-0.8686765744937502,-0.6119521984921994,0.5095349673257531,2.0577036910351856,-0.6394874307317717,-0.09970175843065895,0.3747066512797084,0.004150824730943472,-1.2757479158102407,0.567538804338399,0.9576130796668224,-0.8871223917675145,0.7761340932439309,-0.1260577491081293,0.8085138489093379,0.7950958488667214,-0.622399113317187,1.387817099365622,0.37776029593848354,-0.565673745661639,-0.48301581361991586,-0.47133342817835605,-0.4891467183380345,-0.946251137199701,-0.2058984876154674,-1.512588041715051,-1.150332987822563,-1.9862143334422804,0.8892951458733344,1.5993084941582105,0.6219427577293332,2.1156559241497512,1.1588799028398227,-0.06311825918934004,-0.4641094151278894,-0.3604830369354644,-0.2014144105157852,-0.7154102131092714,0.13449848985211355,-0.2773623860855597,0.83849416089762,-0.07624665840783053,0.3452788620234722,0.06818525999678268,0.5709749597165501,-1.1363827875297614,-0.22413687265082077,0.5298517442809372,-1.2344640691868214,-0.488248244423292,0.12527504223544847,-1.2987087346410604,-2.1525937519002256,-1.1100499346854604,-2.1286670857076615,-0.11548129826816148,1.52513392577232,1.798529307421244,0.9051440631227764,0.9648551993878426,0.8815296430736533,-0.1618941696241739,0.31376809208447387,-0.28077567377980617,0.16285354794014403,-0.016941924341106866,0.15483775272111772,0.5760189938270209,0.4231195318170487,-0.360981082651394,-0.004425763518738503,-0.587107967129315,-0.24159666768504592,0.584642810916121,-0.743884028942683,0.1333697537353334,-0.26253926521369786,-0.37268548971411575,-1.3644480408331465,-1.7408977610243848,-1.689613594130695,-0.45299879275966615,0.039325685427718624,0.8428354745965357,0.7708201580757753,1.6922492726595046,-0.19264207180985482,0.9136722724164624,-0.5545333580438578,-0.6409530402796018,0.09749485652043391,0.6188907203016932,0.8797796908853996,-0.2081737750912686,0.5411204639410021,0.5758983370102189,0.34744228158219553,-0.450889607795745,-0.404172857864072,0.7842707941496406,0.2948751269325911,0.10992372607865111,0.7273011986082022,0.9887725489129319,-1.1787977260692952,0.18225476319352343,-0.1369400610368849,-1.2372586960110377,0.027820448481347314,0.2700342521914174,1.0399770070894656,1.3240168767035259,0.3881405651419654,0.9655700886071731,0.07534222605890895,0.5014989778511587,-1.2784479645268763,0.38557250164701556,0.8859141992514072,-0.944300970101232,-1.00485935691016,-0.08718431420885496,-0.48293873728092707,-0.23083437019964376,-0.18535292587694585,-0.09885380134595749,0.5802484659941366,0.20872210381289885,0.3227727947229883,-0.031015400377167258,0.39708331240696654,0.4797061221272606,-0.5068312014848011,0.15887174756364716,0.6790794619467269,0.2619312822084661,-0.7916039164652042,1.085196264862911,3.034319628119299,0.3009585749571252,0.5053673095896843,0.09566297907440151,-0.14448264366549896,-0.8457446899645714,0.4786082799944907,-0.0030856585609883988,0.533482880268254,0.2966482814651695,-0.339400391120806,0.2354687222081352,1.2130775283807016E-4,-0.07294934617141825,-0.27826841365128363,0.2547889411782872,0.1613400233817274,0.021368541126923685,-0.3518637631649343,0.30037548693875066,-0.28706977794354044,-1.058461383303586,0.5704875506702907,1.1262119100113888,-0.016986098368039246,0.43182790038798463,0.7542712779587198,1.0273137691086769,0.3429159048872778,-0.7207182354000762,1.226322219897579,0.6927478365416062,0.9468833409189991,1.2889312709803011,0.6271829217470867,0.15202685206998584,0.3377320093673094,0.34640457977337097,0.9906209729582696,0.5941803682651241,-0.9240739312472049,-0.9799118866043921,-0.28962116360627627,-1.0416725631720716,-0.1689738242533483,-0.03655204840230614,0.6670887456053723,-0.9070647474494993,-0.03970737290718709,-0.5022030903669766,-0.595664226064968,0.17387570058555468,-0.2267924266032116,0.19995062851650522,0.12665883264627262,0.34872052567296036,1.0235479082683308,0.8873075826159215,1.1656642546152167,0.11108876154031624,0.03217588815939421,0.15876372711664877,-1.0356307836651124,0.8860550471457878,0.5106079710537396,-0.6344628245087535,0.9320917376820225,-0.99311854108303,0.9469591394841681,-0.7923205850167436,-0.47370098714068476,0.6102770906694044,-1.339244834634286,0.580627519000694,0.6650754506509832,-0.7524182701532035,-0.13063999683701305,-0.03469370754369745,-1.0947906044058076,0.3202316771342652,-0.3183162263083927,0.6561609817209764,0.3531060573535545,0.9905393245934232,0.6861098548047561,0.2821798018044325,-0.22857512300872593,-0.6270396629765207,0.23405285005414445,-0.7640960061733717,-0.784327405092428,-1.4095657541897395,-0.43840860016451605,0.7307339388787908,0.8539951864284062,-0.9476408899545887,-0.6491628911002874,-0.8345299848210457,0.11089818465047872,-0.3564960562548167,0.10192379903931248,0.6529918685195607,-1.0038125406068572,0.9084988816775997,-0.11963080704215756,-0.12333684591592307,0.932805643589972,0.48195399179390747,1.162073539852136,1.2146504330684624,0.24701323890722396,1.360349597611319,1.896992199407257,1.6190046409295333,0.9488388255330864,-0.2805312622474671,0.18853434895266147,0.5630652415619593,0.9507826826246063,0.6493142068918518,0.07393749219143222,-0.9541570376040701,0.19904518960630607,0.9007003406714478,0.3826390483551969,-0.7817244026684771,-0.2191733775777901,0.8949532541794487,-0.9074684636888051,-0.6455792819981442,0.5589052870680965,-0.7011078566004009,0.94729392432517,1.1058943445608616,0.2818300101398393,0.5902191599829718,0.10429773791098661,0.7120328373111604,-0.4338514729070447,0.7888028892529074,-0.4393485133218683,0.11322710196050222,0.3394757094866745,1.3523118347615226,0.010700487528500604,0.5085356198846002,1.1346463997345044,-0.2733729866475248,0.4927283909421797,0.8602097989412547,0.4411477609197747,0.23464781630752385,0.5327530076497249,-0.17395575360209636,-0.1862268928053885,0.36759013563253773,0.42398720880575874,-0.10197513239116054,-0.3019330058087171,0.12100521677643297,-0.9554200402931953,-0.32374866275706493,0.2858000463418993,0.8861451150898614,-0.7875597939870993,0.5985253286297172,0.7273921371994729,-0.03312848376591142,-0.17742476200976848,0.32259063099447655,0.7335937352809677,0.19602658658376892,-0.5791284172950126,0.8927047885985945,-0.5119667313216434,-0.4390971297270636,-0.8766445355920303,0.3242242818519221,-0.5709694306862987,0.5611400482558424,-0.4338449061091947,0.4875970248504704,-0.42706524304278215,-0.21261982107576483,-0.2840836076302796,-0.39818926613433364,-0.39113333271275236,-0.007595734043533964,0.5918354620382822,0.48632759952793814,-0.846096389619612,-0.07616367620459046,0.8306773747091173,0.3876394617844007,-0.38776962089916117,0.4070647641687038,-0.40470945401600694,0.016159677219946156,0.5904634774072299,-0.32211551430346197,0.2782374447466421,0.5509427879478713,-0.14315528911613282,0.5062936882122602,-0.8365071201669048,-0.28979209338284706,-0.7517854529478203,-0.9175918643094532
-0.1202519494113552,0.09215328006884271,-0.4571399147563522,0.5350779506802272,-0.24287106904799982,0.12731072493299833,-0.17679720910344532,0.8789309113862764,-0.3406916599425083,-0.09079622136480081,-0.40295621750364297,0.24695897682725354,-0.38047331402592516,0.5871101464709754,-0.8280109763303674,-0.557058753039868,0.7735674908648384,-0.9148510047199023,0.5318223681729852,-0.4509242168733365,0.7249663256645811,0.7007483627646944,0.3003728453691119,8.396945757127572E-4,-0.5793428940699996,0.13564867328304642,0.06771429268384788,-0.7097469419829281,-0.27448008310675776,-0.4886125565531405,0.868317321380107,0.6130387845302467,-0.5222161087491585,-0.532277299408707,0.31364406146648904,0.7514313973322332,1.0550486306126838,0.057393795552292154,-0.6056717080744866,-0.8252786567476852,-0.5625669990339037,-0.32559789181132825,-1.1221493203983124,0.7060967738102565,1.0693243515766022,-0.117072909576018,0.3273216693270321,-0.4128230312816212,-0.7104296662242215,-0.9473951517304552,-0.4435854949817314,0.4186896418143721,-0.19124720600179979,-0.020202696899394912,0.4379233595479275,-0.09182221543995506,0.9481410048495198,-0.614467628906481,-0.23167226608797853,0.4041885499709886,0.6610923018668496,0.8348197756818484,0.5664269881310939,0.9028610297004298,0.06852044522481064,0.6381686855317575,1.1167805891721376,0.5488562550533559,1.023031011847664,-0.20619243236397544,0.9337923214358012,-0.4306232797290816,-0.16418923525263562,-0.1044501708848262,-0.5622186316956991,-0.15781519606277994,0.14701166016007228,0.076630492433434,0.0011281472762876995,0.19420674279063288,0.08684899038257358,0.7020570610526675,0.11202635477489453,0.12394601103957892,0.47735470750006725,-0.5820978466602202,0.03644334763562017,-0.24301281921199322,0.6940716691792067,-0.8513285160762822,-0.11506098295459967,0.4556678308155796,0.7099441026001856,0.8882321815717636,1.609951966594641,-0.2548335166727791,0.42431917653790974,1.80286322616732,0.9034488266692917,2.2958353509834586,1.2105581641069905,0.29001295047622816,0.637542212348235,-0.7935264594938292,0.4571324713879427,-1.614661515429503,0.13228847074055453,-0.2590450642899817,0.8643778889386803,0.04587289047403382,-0.7631277975047999,0.5692912561257273,0.5027935046344076,0.6151532155127064,-0.6982033730014973,-0.6714660986019872,-0.41174401754123285,-1.0624669507664952,1.0693668186117098,1.473886206491464,0.6280541020278223,1.1034658607636065,2.5618429022728737,0.32860214958615,0.6261245525772464,-0.09336314158752175,1.7560824183317234,0.6860770152382083,-1.7849610104305045,0.24552440251965327,-0.14716396551081437,-0.45915009698118725,-0.38754233260064014,-2.0256859999484162,-0.7121132519267156,0.20689411183938114,-1.0861953236253383,0.1616634120033163,0.6005271681178226,0.8142331346852338,0.7938295530273463,-0.6851455826752171,-0.9224163624958512,-1.1019967477644772,-0.5091743930159406,-0.5663310030667541,-1.3818308154543353,-1.1896416913037982,-0.1762698073683536,0.25700999229786464,0.9314114568499281,-0.8318964007485262,-0.8814333467209362,-1.106585454660852,2.129199245270568,1.4314833364688602,-0.06356845139294727,-0.33124695718929853,-1.0031946660029532,-1.070855906172511,0.023779008051590635,-0.631417940266871,-1.1679714275132345,-1.6311114687969472,-0.42436887276525986,-0.2733208740022174,-0.34474001143805194,0.29084749759467515,-0.9518552742489339,-0.2509815795700608,-0.6391258946378661,0.7511419015945118,1.0888585376471465,-0.6426906599514999,-1.604509711058695,-0.7616439591391447,-2.025173211945605,-1.8392140530694572,-1.5023604456491473,0.736734133550851,-2.2430547321166974,-1.5541239468709953,-0.4176970436019659,-0.6403986272383648,-0.589440819863799,-1.722171382541902,0.37957768788258356,-1.4449757857519596,-0.47330531891845873,-0.8217956643023974,-1.3993245852374123,-0.8467746203615251,-0.846567378760264,0.14297226518435363,0.27996841724907323,0.05329092061109291,-0.36190111968249183,0.7496372920466938,-0.7799178360363708,0.17805658690339066,-1.0124110937025133,-0.14005407431189276,0.5320363214935514,-0.22229322159504783,-0.9567041387132731,-1.385724757825567,-1.0623164110809091,0.32633115099823734,0.1283964271641792,-0.8090048443223574,0.007912897907331976,0.22485637018689786,-1.1137840167535449,-0.9092524752538215,-1.4044377226744116,-0.8873307476670088,0.031784860237282254,-1.3600623160114207,-0.1324579705075646,-0.8836020656791868,-0.6041628494139286,0.7018708617087926,0.14791437640710603,-0.13436184345205254,0.6168891436967553,-0.4398963767534983,0.41567758735899746,-0.08086648899123755,-0.5018119278159553,-0.5072013039217795,-0.26191069099843567,-1.7275673588755902,-0.8519595304311248,-1.131229417005551,0.3964018391086414,-0.7709866008636382,-1.7353854635153265,-1.1366192456754751,-0.5157956542261938,-0.5515243315036501,-0.061285535770212,0.059032678342859975,-1.2854841965606743,-1.7575117813309358,-0.7416554553530494,-0.344446212013242,-0.6449765695668632,0.2307003178884667,0.6762593611170202,-0.3725791172006618,0.5268429189591841,0.3650132945975458,0.07701837754087913,0.7045230105776188,-0.5541189875421244,0.9648369196839053,0.5882220926185097,-1.204557915631229,-0.5134515997908734,-1.2316738356845107,-1.4425518062642568,-0.7165323276448758,0.3674418727325301,-1.2551162992022227,0.09036343693851312,-0.8783209899284594,0.4364839615850577,0.44304905407538103,-1.013902253001277,0.07531145204106598,-1.0307262268212813,-0.609599340007647,0.4922783041727828,-0.6611423656807415,-0.9825515594023002,-1.3982200419380164,1.4222669996748398,-0.11912507058272626,0.20909398049166228,-0.3486234138241346,0.9211642690183726,0.44768804769780274,0.258321156236906,1.2857539907523177,-0.4649533538334457,-1.1637014009669409,-0.14242262421326102,-0.3049996641446221,-0.05808834214877321,-0.7497570898081947,-0.7129292309053583,-0.2352446041814664,-0.32972122772420515,-0.22761991809889118,0.5981508433792434,0.5961773366649106,-0.31020813896609817,-1.4572494001737355,-0.8543687171210191,-1.0114187580451384,0.15231498331882992,-1.2894829759380326,-1.064570133989708,-0.1465675070377927,0.30884086312474335,0.8692460258563375,0.028208465756578174,-0.5581620806757754,-0.8549956212426357,-0.6940926755136944,0.9371955805747364,0.09634887496152356,-0.19842991887423767,-0.9236403898400969,-1.859961041323968,-0.4459549069877499,-0.5345346209923233,-1.8058103213378873,-1.5137743820337186,-1.5566956389372322,-2.048408884085252,-0.32700249136092363,0.32357643113015816,-0.5329007684737858,0.9406049309551934,-0.5156937512936816,0.10030064954348061,0.006149937377383239,-0.05919384042876687,0.6731175508525499,0.025423057911795,0.40973122137352985,0.09574712187505721,-0.7257244044466573,0.5937636989526928,-0.5829559512375548,-0.49307281852937324,0.04417593340602128,0.4176581441718664,0.14143011338418532,-1.0597797635490769,-0.777611498037807,-1.4640467357992375,-2.476039822193704,-2.8547506051828915,-1.6796881526919758,-1.0549505567816146,-1.409408301244948,-1.7311401846229848,-0.2807636821183141,0.2668455989656109,-0.5749337683699011,0.485113507271087,0.37489822990193367,-0.705755731054176,-0.5789907489027416,-0.8910254973812838,-0.7467146282319496,-1.1658381666255841,-0.10505688536047923,1.3159137941547991,-0.43876608921183047,-0.6818473399923392,-0.2945582666447977,0.37403017794676546,-0.8360736359335043,-1.0590152648917028,0.7529541899626607,-1.4976399849632727,-0.9344194445249068,-1.3471242964680725,-0.9204033706010706,-0.6315913736527549,-1.37343706497739,-0.45170379066749516,-0.14808269013541822,1.3640650113463202,3.065316618960663,0.098957983397894,-0.5360910338994556,0.19304412621534023,-2.017230773496517,0.9707831650382718,0.46612966073172263,-1.465353179029949,0.4529418286231145,1.2541304965537232,0.3741152314932519,0.2702219043990291,-0.14018412165193184,0.25583085829468316,0.5078403609890075,-0.7486339772810011,-0.3614735703737247,0.6050579532024993,-0.44053873154452583,-0.03873672940801458,0.8784551116313959,0.22644641786054087,-0.19655856920807716,1.0896317113246077,-0.2526864489603471,-0.9328232959080958,0.34521509907801307,-0.13791188207933097,0.5570778828901161,0.42110176831232254,-0.43614135396427695,0.3234981147091313,-1.454292612110187,1.0719721144599923,-1.8604902586509242,-0.9068278920798303,-0.3211870837372514,1.4910249630932864,2.503039970040771,0.8108019017275973,-0.40261465671622315,-0.1654138490018279,-0.7150018202682243,-0.643052907463944,-0.9879051999905192,0.42291613435839,0.19859459154714795,0.3025301190869076,-0.7861131626637659,0.10423629778391724,-0.4366800143199982,1.2025494928039444,-1.7215012161332937,0.23708459521961972,0.27535781073480653,2.304884454348878,1.9101718770028366,0.18796260622542718,-0.9532370314397953,0.15202046831345475,-1.8614642258046283,-0.11443158652106689,-0.47127980941056624,1.3363860377545407,0.004212151219374597,-0.9467248070363276,-0.8252386479454937,1.3917232662347903,2.215877149318168,0.47532709602227974,0.5451931340549853,0.5978861163162734,0.49490939286683,-1.0317137325567725,-0.38555595575177765,0.2545117876745736,0.4216664898431285,-0.24851033070349926,0.1300519522318064,-0.8352509575806656,0.5966875259839437,-0.8551447539184635,0.3558212673646593,-0.08658385566481612,1.1379035690780457,1.5050750109008677,0.8685603470161883,0.7752408072438381,0.3551689937941528,-0.2622860647036405,-0.017441885344245237,1.0244781194950303,0.6692306532070583,-0.3250611851001317,0.7694228454800217,1.3671362439081323,1.5040793101282197,1.4414900730407654,-0.4887962804491886,-0.7886764231357084,-0.3062245385524747,-0.5126342703193538,1.5103419271451708,0.7622003864696373,1.2113834219992383,0.455383322982288,-0.34982782212143215,-0.04833160335620077,-0.20787328902063112,1.1084212863981793,-0.07633700871081,-0.05624009484914826,0.18126561906965064,0.36968273589951417,0.07064199466050661,-0.8028606511389242,0.03032202343685034,0.17938638154833797,0.27206720493364456,1.3523919329714613,1.6159112079247697,0.024071223136742665,0.22146149415797067,1.3230851612320047,1.9141446034894964,1.223266678750148,-0.7474614517217502,-0.8206992758260674,-0.881488122820258,-0.10048538002314251,0.8772388767009439,2.573965113012727,0.21085254913343585,0.7786188464081343,0.6431823292796236,1.5610705971402936,0.3163820552269002,-0.5365927726566421,1.5178691523514811,1.059307628312704,-0.008175317722961243,2.0290811665832456,0.6882549223249124,-0.009503792634625084,1.4193549465917368,0.3926435403103111,0.02568865043500768,-0.6289048363098123,0.5528412753965521,-0.10493933588744606,0.6902377455744695,0.8772180257254126,0.8831119423299769,-0.3639433462273107,-0.3845217277268108,-0.6890290156622558,0.30831325735547954,0.15411195733506877,-0.12220013934452245,0.05662041953617634,1.3733204630192113,0.8907473866651359,0.4903870226092171,0.7016620414439209,2.1470747815428624,1.1038238119815744,1.529273984005111,1.303137424170951,2.8955284190474093,1.5673930078435516,-0.038693389049498594,1.8487563067398658,0.5925592290164579,0.8759771523710193,0.7765755865219844,-0.5833662684385217,0.5458484580846455,1.4979441851899726,2.2590460852542824,0.991970030289554,0.4446496374745601,-0.16872913574740095,-0.8968706679082752,0.6027910569106851,-0.3875926105106065,-0.17284439857875875,1.0556817172361688,-0.21742921777795118,1.3929486341833213,0.5541411425204414,0.6932347532226034,0.7220278995638285,1.7136280951429361,-0.13846903461958793,1.6244974388632984,0.7175218383860188,-0.6689606136861248,1.995905721926439,0.29338902055039195,1.3556777651675296,0.2705900402764626,1.5687042541799516,1.8989866383675762,1.4325459601683421,1.5417905435039947,0.3150563349728103,1.7859097124821601,0.28692016122014286,-0.3347093465117587,0.8070135425854106,0.5350499078970344,-0.8476084514979577,0.04295697242237434,0.8454744714332847,0.9455964722103631,0.21287346602939827,-0.11805706959073593,0.5010334048083411,-0.41197269151890703,-0.17646067297828516,0.5201065471634619,3.335377061942029,1.017955950181668,-0.757243056927058,0.44180383002415746,0.5954263894558954,-0.854430243097574,0.28736374720397856,4.6479030095501804E-4,-0.15991553489101912,1.5065768863873346,1.5634238965534868,0.4187383162262093,0.1291070720382217,1.1250653226888605,0.032066510894203565,0.3979964901402913,-0.35640149323353476,-0.006521316117007559,0.4889821803704527,-0.9355964892101039,0.9602884283825005,-0.15749089505242742,0.9158354565147612,0.5953644467326779,0.4494078834170344,1.0341331818193396,-0.2960105685615373,1.985359300135596,-0.06382587850727466,-1.5862117346569826,-1.0582398723902167,-1.9769450732493095,-1.1590340246724593,-1.8651157302418901,-0.7824405630986153,0.3695292900513597,-0.9757528443249993,0.28642549235894427,0.4206292053490387,-1.2138111866562427,-1.6472782982404068,1.0173013472977868,-0.25304662965563,-0.27962188347940153,0.4300346265233325,0.4340442685942083,-0.27678573977800824,-0.7663487607667008,0.3731104610010758,0.46387705351663144,-0.6925667954256155,-0.4674661484301166,-0.8411246794639455,-0.9962696519094999,-1.8464789750956998,-1.4811567888760129,-2.9542948108984275,-1.7375329047820496,-0.9330651137252871,-2.7831789338917448,-1.4986195347057283,-1.6834870939225477,-2.600230785724285,-1.0004804499593631,-1.39788773282836,-1.0206401651055133,-0.8284079225569425,0.19903890670392305,-0.20139396455894917,0.4582998749342006,-0.24364356860994416,0.46145676165249644,-0.29557297021879786,0.3224381149499933,0.3866302481092836,0.9494945936175221,-0.03271818132859824,0.021821177781885196,0.3033880590173125,-1.041791792107723,-1.4296362233181827,-0.43034393234686436,-1.2183362055128402,-0.30004399336293835,-0.753435971127292,-1.1258478816181892,-0.7277553218430917,-0.9088280662572983,-1.135068855787737,-0.6896235125415603,-1.8169874108603434,-1.622386790692036,-0.7399122005768245,-1.5057626841986362,0.9384292384162116,0.7090236745962032,-0.1814508462546417,-0.5355236221060642,-0.31855788245371186,-0.6418006998366887,0.9380551218732079,0.12823854261426382,-0.7599521028872749,0.5028488435057856,-0.9744123406954017,0.5829415755202935,-0.9218305069120689,-0.8713596609494496,0.2096269854444495,-0.02632342395886785,-1.7713393795331278,-2.1794449888882785,-0.34360454815876434,-0.8938602783358317,-0.8046948816532373,-1.480286822384358,-1.2062185637873222,-0.4025152227687329,-0.3783656798216226,-0.8151986765202465,-1.1460266565678259,-0.7978511969221644,0.26087906398547195,0.3165911827912412,-0.3292943873885652,-0.904660190365337,0.31738627068511427,0.9829089633765568,0.9144120876232227,0.994251286594138,0.6759039365193784,-0.11817176524637141,0.048141636900554285,-0.9195982627841601,0.544558219333385,-0.845105448000658,0.8336215999253077,-0.7181448148528843,-0.8809600447142225,-1.0400874216518072,-1.0506216417629932,0.12465681744808028,0.38264298094454924,-0.027157622368926396,0.16432817196447122,-1.3858708065111012,-0.6791332151885777,0.21128976342795086,-0.20412666385804992,0.1678521615138858,0.35348233814865765,-0.6718845454130697,-1.114618809808066,0.3786624570259774,0.90197847528005,-0.18062398483220538,0.45817044961089803,-0.5147927021567829,0.6226133667324547,-0.4692521732129291,0.12810872613644042,-0.9718722267987971,-0.6221481312145671,-0.9513659332621249,0.3686157016329979,-0.42292132114097636,0.13717185455957745,0.6115857887676789,-0.5544482240127249,0.33469306065586185,0.5053056984129864,0.047531740583739,-0.4196941990659959,0.9450511897859456,-0.04304034613599949,0.23221423493032461,-0.5804070898287875,-0.41700296356054456,0.8041957723923233,0.2748351832440166,0.214377682603402,0.9125495653885792,0.519796933187542,0.46759184192447734,0.5001991018943861,0.7971098368927683
-0.17472336072438988,-0.5238920406032768,0.34875798561859694,-0.6881860395351724,-0.6337212411277982,-0.3339559090199937,-0.8238860940712507,0.1632261910110644,-0.373718841657553,0.4612948089033262,0.5306290136705623,0.45142742458168916,-0.9893406130244833,-0.2616819278097659,0.5537412756412221,0.5799932303265176,0.03168711735809704,0.5951301968461082,-0.17861383820560106,-0.18296648936913584,0.46003582462556825,-0.4055644875004323,-0.2804219298072135,0.20827473348986048,0.11743647371074695,0.46098566777818073,0.22183927084083144,-0.8130730497899425,0.48651570520237386,-0.27011541382329707,0.02686781986637432,0.6400724405990759,-0.9555838363524025,-0.820410143390487,-0.6358561190314052,0.49104955001735795,0.6550336898635283,0.5885363846877212,-0.25805983198883076,0.29191444354710805,0.2537108430021499,0.7087577350056213,0.8928943476062787,0.22310045316731492,0.47692657615094614,-0.08461372932790115,-0.06242617057232277,-0.17171339957922258,-0.4370080444055694,-0.7547637665017364,-0.0826319098424171,-0.4937851207291808,-0.017913953653512227,0.5754136893140478,-0.8279954314141178,-0.0858680089244599,0.6269806709616974,0.4689194204874656,-0.9209799381457315,0.8335947702365378,0.8469260955022258,-0.764154108627456,0.9407962519509717,0.19880264732511493,0.1426527363574481,-0.34882362613873114,0.5407940237659362,0.29360838973093517,-0.6436221212860251,0.5921936338190829,0.4295624978606327,-0.4770668815670135,2.322936521263324E-4,0.7061476513238454,0.2230899681611206,0.705079655840032,-0.39290561702733207,-0.526469028026975,0.7789391362770108,0.3681629788883987,0.9962240293409816,0.8701027233235799,-0.11193664985354346,0.8843249190637863,0.8788546297567061,0.201071950995094,-0.3005156011092702,-0.9644488897787507,0.6235654904688539,0.2678711149525189,0.5996880965791059,-0.35685861146965353,-0.18833762413246208,0.5874611086468527,-0.17237514224972866,-0.6105596271521749,-1.336447531908628,-0.2848447887826635,-1.4075279702086676,-0.8484922967327669,-0.12133253922113495,0.5492664727495269,-0.7293798773661493,-0.47838514827338746,-1.155205934659167,0.8657057415893904,1.0485286194439545,-0.19340760599054235,0.6305255164692428,0.3787137460456939,-0.3373400950173038,0.035528776175963284,0.19905397987111795,-0.13978497569197465,-0.36383537683110195,0.7118199574517671,0.4561876777100945,0.2812409705865739,-0.4759358366251467,-1.3017735919274667,-1.0944278277808868,-0.12812260501606626,0.2512180007758708,-0.16644303808956676,-0.8783157182405759,-0.8337960260068374,-0.19809686739259422,-0.2538060684342242,-0.432051256698263,0.3542898737207913,-1.9517985735650196,-0.8865842072397199,0.20020930842694862,-0.6323268758720887,0.85401885264586,0.06594890815230706,0.8518847492969962,-0.2023039907697687,0.4420142844604374,-0.5704184344337225,0.5828258000562136,0.1678741039756979,-0.40093498000311495,0.5043423652246184,-1.1027408596035788,-1.6382328991891608,-1.4218711885466773,-1.5994392455047548,-1.1133337548961735,0.22651724140883261,-0.07435653899058126,0.3683954133266155,-0.6218774639463402,-0.6737842603476465,0.4061777191707943,-0.2286489748435598,-0.5204274941637399,1.1827687359924122,0.27503739528956767,0.7279046227569513,0.40572199520233676,1.1503064958201386,1.0477416632908205,-0.4108030241909755,1.0871026176305867,0.1887439508949046,0.7096508464153902,0.2665391036033625,-0.864621079629901,0.15584608346619705,0.5658811852351192,-0.6137916185760892,-1.0647090351889432,-0.2284057003257588,-1.302380099547175,-0.04890910776949563,-0.8009177954708757,-0.617347911973222,-0.7571549334300152,-0.39507119729849,-0.6437500003413299,0.046433799849514054,1.1355064988400774,1.027112664641096,-1.0678948907871026,-0.38724098986415345,-0.38153985815140534,-0.018422380027484947,0.5302911504044887,0.710166028772045,-0.5129417110439881,0.6989180718071657,1.8216588570299461,-0.08773288192973383,-0.3014287105194217,-0.9657438718381633,-0.1518316356547071,0.5869793400359999,0.9503157146120673,0.05691127015397918,-1.4533629443101324,-0.5341318357109636,-1.5897446598558955,-0.3755806558427501,0.17927942212817244,0.6595648562365529,0.023122430171752452,0.06367662314376706,-0.3773806573465202,-0.5255689895298589,0.5111844752944458,-0.3112894512707068,-1.304464091283389,-1.2707741646725217,0.5659844606273591,0.4248298486996814,-0.47714076004744926,0.36201122818297765,-0.44332956275519436,1.4235187358819898,0.8989577761441169,0.13726774779342096,0.10513460286139757,0.2344922179336553,-0.884094218944085,0.4143126653970508,0.8914679527403514,-0.5539084840079014,-1.0087638025044072,-0.6806889627077235,-1.4874272773017974,-0.28515768021714427,0.029413885902109867,0.985622339002067,0.9356670329130367,0.1685138267654775,0.6451237818946834,-0.48734953257244357,-0.29166416279583696,-0.1353145286148736,-1.3587071854800978,0.007184219862163163,0.9154518065221794,-0.2896775825026033,-0.693090389924498,1.3621116235757518,-0.265741710314543,1.6051991926400317,1.1611805929411985,0.4423931080382114,-0.6012015724544568,-0.05432257570741105,-0.3426914961666362,-0.7848223099275498,0.5586764433312752,-2.9957732136375574E-4,-1.0210495141604943,-1.143054126143543,-2.0449235924165015,-0.5687901026535774,0.5357927279034641,0.60655101710997,-1.229753864754041,1.799149900053782,0.6918754026032718,-0.41989270253772776,0.6268783850649593,-1.2516471364157533,-2.1261262850809493,-0.0027772616147081043,-0.4803343318512661,-0.6987568800433861,-1.0400882942454581,1.9327522942799276,0.17880083377431602,2.057183056140209,0.2971919729126797,0.782019025644758,-0.7978678496743453,-0.12694396161362542,-0.9328965361392113,-0.1221385911610141,-0.3110142738954691,-0.3762355070323849,-0.9057842498152319,-0.4139191483949421,0.8199572719061525,1.9413856956238014,2.316196271253061,2.1231373987529207,0.9696153809574504,1.0794468173857852,1.9662187730151737,0.3301045519179377,0.8499935844517723,-0.19809085200885432,-1.9065064836331866,-1.8696125297157193,0.23500361667083583,-1.001448290054691,-0.48409790016566484,0.16524935055066867,1.4871217019425929,2.6870472123529594,2.1650521481844294,1.2184519532375775,0.3996930107140279,-0.3028853404483623,-0.2713466461918902,-0.6071960171493398,-0.665208597965251,-0.35989984070935466,-0.9786459105737029,-0.5004054962774404,1.788607512842112,1.515065774782601,0.4222086662609547,1.9726020554935337,1.25213692303453,-1.342435112626311,-0.5115464108334979,0.7847003633747262,1.6189959523044064,-0.879322683913702,-0.9718060415171776,-2.6341200522057546,-2.524696797668206,-1.5918607668735636,0.20190122918723186,-0.35375202737012207,1.8706560069437805,1.3166091268413025,0.6575105667655365,1.3980171842750253,0.45501120825873587,0.03491904747554566,0.2561529588714698,-0.06175933709938114,-0.5975004148247424,-0.20902325682529865,-1.0749772290094772,-0.12296768529159297,1.1366308919379877,0.41400048160213054,0.2524588711979813,0.38775755322212996,-0.300067314902689,-1.0935942886513192,-0.37994037633442235,1.1862498408628357,1.1109426347217959,0.585125135875419,-0.584054602958441,-1.6488535087409508,-2.581399656286195,-1.3218276776628675,-0.35174703913044536,1.0985969743485642,0.2722831925777994,0.7431637367045345,0.17320172902867195,0.6971828062187987,0.8103758410973116,0.21223769457462732,-0.9878029989404796,0.8063457057540707,0.29709746275947796,0.7392699678348219,-0.4202354581071325,0.9180077503324006,-0.47639712955996677,0.17439037837707017,-0.9910628381476947,-0.1124918580007813,-0.3304732830118146,0.2305740822694488,1.4029653023702735,1.519498463633116,-0.01798996226614463,1.5343714919389584,-1.6547918480805677,0.2131861531541556,-1.0981006093566876,-1.5188388635659869,-0.9879581379354023,-0.008558122531486512,0.3725456564586664,0.32513150295734367,0.9517702213928886,-0.5219998473932672,0.09066940060669514,-0.24876226155549283,-0.4389153207666135,0.9058991797807576,0.4308865434438353,-0.41996061510211413,-1.0009801260960818,-1.1181737515787855,-1.177867139138639,-0.28486454355232504,-1.167801325724836,-0.0684668294907405,1.425952508002961,1.9118762126208209,0.1472059487353624,0.3578667068013612,0.11452357309201751,-0.4958116930627201,-0.7985447618495353,-0.8603599846606076,-1.164712714955788,-1.9793166853419288,-0.9422393041711687,-1.7672716214373154,-0.3363833704932393,-0.02423145112348374,1.316053619103683,0.03630176147587087,-0.4490737187149753,0.7502111312958644,0.16963416219703692,0.9737427975753981,-0.6153230705253624,-0.8187044248525122,0.013823785128964563,-0.9275608287313768,-1.9881486172589946,-0.6821715509463729,0.6096545059647581,1.1388613665925162,-0.3813670030870848,1.5497151413677188,1.5068461009724925,0.2810129622145426,1.333710491862684,-1.0561547784727052,-1.3541333618904843,-1.7755714864683994,0.29426136443951034,-2.352969417209703,-0.9812003230308797,0.14839743351031456,0.0820856793092866,-0.4329994733485941,0.14712500356925187,1.1018109776375766,-0.8578704398933594,-0.5830158673223064,0.6585682671961199,0.48012542303385614,0.030083966702640533,-0.3134443390657101,-0.29514530057911015,0.13030063329840735,-0.5304899201714555,-0.2327537555453195,0.21115436604912036,1.3494006924617385,0.28299565652845254,0.5759697018455583,1.509275342951054,-0.031232110724652942,-0.5623710849885012,-1.5999183511206077,-1.1700857031233751,-1.7190908092588446,-1.8006875244910545,-1.539616433446248,0.34652392701663404,-0.6311006812809673,0.10037020142708877,-1.0500423830141516,1.1142596328625813,-0.10549212962965122,-0.5415755778511495,0.9521302721070726,0.031045343069441955,0.5935960991943701,0.6838432914433948,-0.8781036290284002,-0.7954299000703378,-0.7451722702176876,-0.040787317896331825,-0.38569694448175174,0.45491548736821175,-0.1188111068845645,-0.11415779266724677,1.3997629823601196,1.6082528735039887,0.6771885760483796,-1.0777091666357623,-1.5736954125622737,-0.7474148088256035,-0.2713809126749036,-1.2217014976181126,-1.1933254105940354,0.8839782188824222,-0.3333264653087097,0.4945825806739409,0.23752560767170133,0.6733803879062183,-0.5141908503550513,0.3001861249220668,-0.6474359918365472,-0.6268505811137215,-0.6389620730445636,-0.030322458378811357,-0.005853653611701066,-1.441848110391875,-2.051335184611037,0.6808430106181085,0.9284881780336192,1.3970238598533185,1.7071214299652362,1.5061991349490278,0.5862806518804814,1.9165965155409854,0.28149683864685077,-2.2048188772992936,-0.4532381224411352,-1.429102464121953,0.1350917400562856,-1.093759734772404,-0.5461668302094183,0.7011284929215471,-0.0959691524282764,-0.2644323547216888,-0.31442200365338957,0.3796740102569505,1.1670971740921714,-0.4729687760581058,0.7985724462652111,0.520777847465233,0.3733072011707163,0.640752392377416,-0.6764855509046926,-1.156491283272366,-0.7248603293155264,0.055696288301004135,1.5112192639314894,2.201680163340474,3.1173513173720995,2.251806100776154,0.680897357016114,0.5341602076718007,-0.6712651430782334,-1.0836792810372218,0.9364890934685421,0.6846390154262999,-0.09052267482148153,-0.7527182630448183,0.7265939467818652,0.7944425994150894,-1.1788831561988384,-0.04873218606328011,0.35198306767643167,1.6642449473798657,-0.6525823275920899,0.5510115966885021,-0.09986059329733406,-0.07265247289484611,-0.0778462936255649,-0.3254857632683689,0.08273374432874625,-1.7890876711602466,0.45841259353779273,-0.14520002038858495,-0.05507135580650538,0.04261480578081465,-0.37103716452072394,-0.2848564992111351,0.47811877429971156,0.41876932369395525,-0.19674765997675042,1.3837597965655712,0.7189003094136903,-1.1512360370845975,-0.48718461162768045,0.10029375041785303,-0.3798790232665887,0.11543862044327045,0.5980912355705236,-1.043474858187704,0.07168323098411603,-1.0356492728608322,0.7764691702067331,0.3910305918356739,0.7387302911014533,-0.9560768855312081,-0.31912570394806355,0.21519415573314818,-1.2968179432764606,-0.4456709713915309,-0.2025208847520292,-0.12656536825552786,0.22375372589488537,0.6127718708512849,1.798968980094751,0.45209187431274167,0.7253552244861137,-0.33079293271664867,-0.08281166122529578,1.3969709571375966,0.11520646654868444,-0.6722094504948528,0.9976886953269518,0.27760713376087637,-0.9219651386644695,0.7335419369843456,1.3209509114820084,-0.574711495414729,-0.6365703436103256,-0.9286307152143207,-1.0013815313760075,-0.6282459992581413,-0.3413244896537698,-0.6623403861977079,0.4375622497300836,-0.6465258071700829,-0.865465006707479,0.20396314096475968,0.7087726980934197,0.1739112331481161,0.11203203941503803,-0.02042108959516652,0.9277914597532871,0.11295894642745154,0.23779767622228742,1.0188307367340421,0.7625769021368528,-0.5268969960855046,0.36673622060384353,1.3004590628958028,0.12407211585045856,0.04663187352356579,-0.9186710230029411,-0.00766020123451291,0.6499143428028933,-0.3836697592650289,-0.3776997554185101,-1.0921871357349773,-0.4178832723680178,-0.44386629197782157,-0.15430681023890666,-0.1735850011189597,-0.4871114667396059,-0.24417193338507465,-0.8559920574616056,-0.28404832780147854,1.3431736618607315,0.052220186751804815,-0.6690065090037229,0.3287084717919317,0.5513995298366083,0.638751820015649,-0.48021861839837876,-0.3176568302019497,-1.0853693502898059,0.4258858685322528,-0.16331219356615823,-0.8862199323351538,0.7167027901534816,1.6412451737543996,0.4659702740214707,-0.37402713304628293,0.05083023144390517,0.4179968782983011,0.18501337371472037,0.014999371107453151,-0.12763513819327085,0.283284049069691,0.7035366651961967,-0.30313713316992175,-0.36596525401859625,-0.3784214785068543,0.37782905969381864,-1.1268086311591317,-1.5230811384610825,-0.7256590157003917,-1.8022501842861172,-1.6759043595215777,0.26505189838472565,0.37315071159537966,1.7850734941691322,0.6483102528606506,0.2532025024271537,-0.20489652110141163,-0.21739896686172966,-0.1252747033245154,0.6623839415420347,0.12886478590080747,-0.4736691785210914,1.1546485633075219,0.289120426771484,-0.8491234044466014,0.37962900144491535,0.7506139657785413,-0.5572673368601465,-0.5720028223374755,0.3249696909995534,0.20038426789131747,-0.8986597623617876,-0.43382304998231663,0.537868530683461,0.21901937739243196,-1.3296440488528567,-1.3255971502165407,-0.6626994108918692,-0.8674157494569594,0.4651887758108466,0.04311186054801087,1.2542947109683107,0.0011054541123803714,-0.22518515069850475,-0.9982107719557237,0.8464809425194426,-0.7411786123414151,-0.08870762622953454,-1.270645297570626,0.1121653568302487,-0.5412484588526961,-0.2995328589308579,-0.30972576442270894,0.4929152316485423,0.8910328471390225,0.5902425641545231,-0.03164538198420583,0.3689440967320572,0.5854507642868025,-0.7743589394221859,-0.8586994643562473,-0.6064228310460172,-1.0001691384938898,-0.49490656338779754,0.4212401442228912,-0.8800271422865823,-1.3359792685275538,-0.10124078813297407,-0.25786731649299716,0.3405046419279549,0.8276155183462267,0.6345015959327265,-0.5517881545210467,-0.7672875071093517,-0.9112655121841139,0.3491857592998518,-0.5372382987447144,0.6512991116606841,0.16429741399083245,-0.7497989124453891,0.22259786587608177,-0.7393217966962863,-0.12729798680680457,0.6014437146288198,-0.4436185336928573,-0.9152488668229513,0.32719456558482585,-0.24434409605245966,-0.5375905713144986,-0.11390275658375981,0.3904918765573627,-0.8044979370530217,0.830107371484546,-0.9013167379153467,-0.7949611885565601,0.516895661225417,-0.720237923202122,-0.39368832095861345,-0.9496998397557213,-0.2739956173566687,0.6739742245941598,-0.8665579925664948,-0.2599894435974411,-0.48158912762882927,-0.4182361691781528,-0.5811071965773897,-0.4513575165951475,-0.31059335491696055,-0.2926365335588956,0.00543198336909978,0.7327517649938877,-0.5747473948766655,-0.6869163165124201,0.0845003130287858
0.3434298952247705,0.377987043480402,-0.7829556892871814,0.15150895970046996,-0.8492409014202491,-0.7986970277495176,0.1335985979111216,0.7506287984100648,-0.1443417618108669,0.8779265078817122,0.5144619214533992,-0.7164526837574119,-0.3047458182087733,-0.22768228474544042,0.6869993884629679,-0.9021321966337593,-0.7221463328047695,-0.6391927447775725,-0.9839182736651251,-0.3077923512869074,-0.5384623415974643,-0.016336383251920772,0.04615890044099169,0.4062505219959749,-0.2928721374929051,-0.04737206010553785,-0.05123392418065964,-0.2894013441507466,-0.07891184575539634,0.7199042212781537,-0.4901813759645044,-0.4327941351560587,-0.6212686053015662,0.10425280787739064,0.9900299980997305,-0.6132533761631667,-0.5604922041125834,0.8890416187575169,-0.1818915276315507,0.16076979460113325,-0.5380094535698623,-0.5011271431470468,-0.5543642634527998,0.8545433734158815,-0.42452727333238544,0.9341686975046536,0.9616338944501963,0.04167952718635214,-0.3318172208280289,-0.3651536558259995,0.7410123356539972,0.7039767410966185,-0.1585220039539863,-0.5011883406125555,-0.1456198592855047,-0.10788122992419669,-0.6026897245280678,0.059865045123109306,-0.40985745606378143,0.3319362578318526,-0.6209343843097794,-0.6591533302605214,0.6988264592668263,-0.8649636276829651,0.5089876317111067,-0.33235888339886216,0.08422115924138733,-0.3267147079333168,-0.7904974973483706,-0.3815909432630747,0.23580753847419508,0.5965969868437276,1.2900677382977215,1.073429453257227,0.10127278485154423,0.6413948376324228,0.47325289719726554,0.8211228767956108,-0.009804525101913136,0.2930743048578541,0.8026456379350849,-0.008020199475468746,0.25533712880831994,0.6280138986283601,0.5859177711768295,0.45643274424549984,-0.8505746282112879,0.9404516898552977,-0.6565406132410236,0.7943562117153347,0.4103593773419405,0.745255791355763,0.03219066374466839,-0.15815807018683117,0.7316269241491654,-0.7603105677188523,0.6871627715968776,0.9234564086348337,1.2628268953773518,-0.05383963475036779,-0.12437622246399072,-0.38730248248981425,-0.5342237821284531,-0.5180299626995771,-0.5734695942133352,-1.4326940458586679,-0.6418929108858753,0.026441977645364222,-1.0764060822101689,-0.5421046879361222,0.6506370077259097,-0.30510063623952655,-0.09808457684485061,-0.3667741282853535,-0.048041106144554716,-0.35792741912501347,0.19592809066356862,0.7499830810536979,0.8675774041815404,-0.8274169780969625,-0.35076980945499503,0.10172113653114137,-0.12929200350992598,1.4585463800675207,0.345143816843378,0.3486903021653426,-0.15041944734061205,-1.540218180106844,-0.924558457139944,-0.9196476622644577,-0.0030267070235108153,-0.6159228579327716,1.320011848439678,0.6205572309259445,-0.32644950404868417,0.3934723055202762,0.7168459298475603,-0.7207972311903988,0.01979741245272656,0.4731497314683739,-0.4181596139076551,0.8346327820173078,-0.022538076753395215,0.7259763533669866,-0.08806304647787623,0.09707017698946624,-0.6047208672030844,-0.4975605285955851,0.6344271928985673,0.16802324612754055,0.33430076309066836,0.7809147758255385,-0.22046285338250216,1.8895780755316742,0.0327573067526287,-1.0386269737765341,-0.24475418767763543,0.11644357524202609,1.1044842098337144,0.9803600602467072,-0.02218763854057585,-0.23774451861250373,0.5522937835837689,0.15193426778585684,0.09572845509315699,-0.37127981627837914,-0.5874529904658425,0.3319976089327051,-0.5671998565562468,-0.36367807620028764,0.12186324032584393,0.011672963347678991,-0.8122018252567891,-0.20983393162839584,-0.048748261339128976,-0.07169419844951776,-0.814062761351205,-0.2182586898175761,0.3987937858207554,-0.6276468003537126,0.5686926723512502,2.6531361960873396,2.669276947423257,1.9121945366736235,1.473427287388365,1.3572887303747558,4.031971429725828,1.4335059831182435,0.1159342959431184,1.2178264544328,-0.059225635919122506,-0.24987311230626597,0.6199631435674348,0.19680428149344742,-0.3748429558923165,0.24575119716175184,-0.37912126590578304,0.6742589863512218,0.7590476152873643,-0.6874686313692846,0.20631187100738108,0.30158342585929393,-0.5001048644503043,-0.1611402420531107,-1.567681476763584,-0.8011503286483344,-0.16972265839739323,1.1961865824154538,1.209877488696204,0.8751269635895517,3.4832477980973016,2.2784170015361287,2.3016733078521145,1.0616373251417233,1.5852103467139713,0.31250525453220424,2.104102495085558,0.7776891267005936,0.16686061666556978,-0.3638337889039336,-0.21220483638007454,0.2136641767229026,0.4559021737565671,-0.5314597127358434,-0.5526014004924845,0.3856671882989374,-0.6533736629003363,-1.0476090310815636,-0.686731669169114,-0.2030121434006163,-1.0548348152199705,-1.0500560900366198,-1.128404587411501,-0.7530830477674154,-0.9227346776388841,0.024569372594578295,-1.551061968282461,1.5775322850528186,2.321923440244624,2.457124536844219,2.7513945680039824,1.9127981601150945,1.3096520723250473,1.8499114142776931,0.1936132852729533,1.6346848782707886,1.28468299346561,0.09604779678341206,-0.8170023628494343,0.2975667027094411,-0.5532482435968257,0.38163101027518376,0.4516484372865149,-0.4509780371171033,-0.5463446456485469,-0.3672074777902302,-1.8195288472861297,-0.293444546443793,-0.10752253775762677,-0.16664812637707832,0.18226295174993895,-0.6301439579228622,0.12341307938857822,-0.2814348613338459,-1.309742970151109,-0.07977469388238231,1.271597695866979,3.1078837973040088,1.2640086404678645,1.2664887610478714,0.4447370980759981,0.37475687562536925,1.2032828700074862,-0.3056752442811884,0.7242738874462818,-0.9291609642034988,0.19828506124832274,-0.7122904092977825,-0.9638755842313936,-0.5635728035550315,0.447076691800652,-0.8916472668548288,0.4435463444151148,0.02240447393047867,0.08613464360809031,-0.5908044770103063,0.4051296136841414,0.08717981760188097,-0.35431532856753273,-1.344068977159742,-0.18964600181123833,1.3279908717881101,-0.33643446113992137,-0.03157869614534096,1.0356472757473016,-1.7745645261631742,0.5633116539131021,0.6267860442590163,-0.8471533280585767,0.8569375816617602,-0.9381548931764805,0.4000986456383079,0.0037711813226870214,1.3786930807550954,-0.6501140516743326,0.4278087608846272,0.6114441569236486,0.1910653521950899,0.4421200019567384,-0.27061088981118164,-0.8600548100339694,0.23469994918648235,-0.5294714778326703,-1.0697159634434787,0.15249372456197863,0.8142017921159813,1.7905870644159618,-0.10986314825105578,-0.15271186304886716,0.1867701014536299,-1.298594414882991,0.7046080050258094,-0.822840341405899,-2.4781252873500312,-0.5888515664151038,0.21398657470683546,0.5256180478559901,-0.0352161051751651,-0.7516386177474148,0.5019966764587268,1.308076744438485,0.03141440732815021,-0.6452646230678556,-0.15630122124941265,0.3015869325859009,0.3784754089408575,0.47042743607040893,-0.3704431545293011,-0.9498640304098251,-0.1135746439680846,0.951852545751314,0.4803328553914566,1.2785816194089452,0.7992818837226926,1.399150429001868,0.5940194377920873,0.40868505538927874,-0.17271083491375708,-1.2863659828828677,-1.446624510300238,-0.09692491623153861,-1.3301781656956835,0.05898510897514563,0.047965807306197275,1.5161739737803035,0.3191573660630877,-0.15979346376275722,-0.3964724053946245,-0.7732391792128938,0.6137221323391231,-0.5335727674729859,-0.04189333763585636,0.5228403789508284,-0.7414029313941152,-0.423700581450766,0.2243253929153457,0.9339898230804202,0.08561779476922259,0.4648828848994981,0.44353586688586727,-0.46240535594340004,-0.15939028735234292,0.3533311426505838,-0.05015896419436948,-0.7104031754720035,-0.26600267326957244,-1.088214290458548,0.5369374312939337,0.548482144104405,-0.7695191419632808,-1.1778128369266252,-1.1327376884849512,-0.7294323656457758,0.13811507073528403,0.006354417336086131,0.16111118665456506,0.056611659125907564,-1.1412202564022604,0.21765834234571388,0.10572493614543112,0.8517820874467713,0.8280010438750899,-0.7835794624198125,-0.030573245238236818,-0.27082247162720713,1.4267890718349934,2.078780938379887,0.3697576510916327,0.025772026990262882,0.45014776353976244,0.12479131359352698,-0.19504459028599028,-1.4769664503879352,-0.9140420335063422,-0.8253067814499496,-0.34948303614296383,-0.39439146165407973,0.8059807183988434,-1.6171721780681267,-1.4599380094750871,-0.41020097371801056,-0.7735321885323124,-1.1918648364062001,0.23222639982209403,-0.04229403692403729,-0.47348449264085934,-1.4896241332792184,0.010988168341731257,-0.10164828349414783,-0.09353940898602647,0.3574057221966104,0.392534270486264,0.8024762150227415,0.4142780646882961,1.2805907290207363,0.7236368498208583,-0.20242804265132783,-0.39427628795982994,0.10766568885643094,-0.2834411740240478,-0.2810526170356214,-0.08126080088413186,-1.1639933906065398,0.9209390269928951,-0.9404955635412885,1.2547809329596666,-0.9376115718049693,-1.1054469298417224,-0.9937014545603603,-0.5407189897990918,-0.7699359341315748,-0.9362883028748241,-1.0953490986674739,-1.8276834231884433,-0.5182733536995785,0.5659289171516876,-0.8529020305535389,-0.35608316441791144,0.48383128001987963,0.4074999394525159,0.08950153329186782,-0.11860667402193957,0.9433463311055612,-0.24595554011559878,-1.0841250617642568,-1.588248084012244,-1.3482463837021896,-0.4305698976031667,-0.058163715949697437,0.2281253252553427,-1.1611072166712275,-0.6625310656813049,-1.7306852628721385,-0.5190649476492648,-0.9630630879105416,-2.2003507917371112,-1.6805989711682368,-0.36453257553196644,-2.0839271475329286,-2.0056296211379085,-0.8637320311246005,-0.1201802170328924,-0.5886980912063472,0.3062700031190118,0.6308127136981285,-0.4461218996892464,-0.39025070592742117,-0.7533958154707777,0.7578129358255309,0.686088871796237,0.13836841674378497,0.21621944583884134,-0.8997392260071698,0.4431945940288027,-0.1731949649952243,-0.74171919552561,-0.2721661858355115,-0.8941988911507485,0.192600679819028,-0.37895769885726327,-2.361139966305944,-1.7052482596628504,-0.6688673097084407,0.5932707543240936,-1.412778737904178,-3.9082154009263013,-2.507554968535637,-1.4721168519929941,-0.33818618409930845,-0.7534192532672194,-1.809818459383461,-0.6200645725235773,-0.7051470889155655,-0.15899120795189756,0.20116753454389874,-0.3833771399182149,0.074190777886248,-1.2580949457707036,0.4262984783423686,-0.7654894631834583,-1.5790966545968403,-0.1361179961637165,-0.71623741373163,-0.9839615664390488,0.0793224497264195,0.6141675273042709,-0.8419646020168984,-1.9242928163754303,-0.5282194098087274,0.8598941400324602,-0.09307509657338882,1.3243070289826102,0.18516366967195236,-0.9034821721700467,-1.1998363637598533,-0.9602616347437937,0.20740120902409967,-1.079803810952707,-0.19555245271663493,0.8748692763979885,0.659574484191512,-0.8759329975666534,0.6712419031716268,0.6046701244643767,-0.976089179169453,-0.16157944834506624,-0.6600958144113865,-0.3195423866649986,0.54535071063263,0.908699801059219,0.48791322738274007,-0.6437704324596211,-0.5550948992277789,0.8180873020399958,0.4688859328129858,-0.07558733470043731,0.11126874296614987,-0.5725448138508294,0.5214429534180868,2.018395029988392,2.161307165700853,0.5468805451228843,0.9118855994769679,-0.2106451636105125,0.6356441872967025,-1.03476854129784,0.1965476724007913,-0.521243595447309,0.9151972173024928,-0.2516675505989628,-0.21549457958711105,0.24652671314218713,-0.8494272227561136,-1.086391015591422,-0.07067298864508682,0.6282132416845458,0.24046411408866633,1.1660575553620567,0.3706550127206822,0.4066278202681272,-0.31045506699429926,-0.6541715814601166,1.2421746421756736,0.04383595427803677,1.8831259492725827,-0.6892019694392341,1.2790076946911126,2.412904891305,0.7116713038930161,2.1405249267641797,1.8088717425087149,1.368554108609223,-0.5083126197282543,-0.2846813433844608,-0.5100474994092503,0.19521574994534893,0.5000364556980662,-0.22006674107957566,-0.03130860846472877,0.5598226255953981,-0.5087906593422594,0.8700031639074879,1.1279636476419097,0.28010415781488107,1.2685387674591937,0.6769798983824318,0.004269253339890699,-0.9610030646925961,0.2768455038780221,-1.0640445124424274,0.2918920043714051,-1.1425259311823777,0.8738279580982229,0.2552560922399556,0.31834601527124284,-1.4693264853199692,0.32014443338850695,0.401189316195263,1.0405779700115614,0.7900226963387759,1.2345197490828277,0.28714223587883037,0.38704612108707537,0.9728374072326273,0.29576805431241887,0.331551630843252,-0.9500079745059892,-0.7574863623619263,-0.1602564158713981,0.4560708261979203,0.5318214039781458,1.6064218862411415,1.6326926373946942,0.09479706356557031,1.4335851108526343,0.5446524269508044,-1.856095596401169,-0.48350709416895393,-0.526800121773417,-1.103187800968655,1.2003001209570072,-1.0458363613408848,-0.07145536636028746,0.1089263836052098,1.090111085406942,-0.23470027514151837,1.3216303366779165,-1.1292425045690082,0.3393971969467472,-1.0684598888959398,-0.013638337839419642,0.38110128598056264,-0.15009561591764012,0.5912054273125277,0.46849561051165267,-0.6829292937112033,-0.1035003699675362,0.5906634916600718,0.772000549970569,0.5937670178107619,1.0619152258371267,0.7346427117920511,0.34546037008300245,0.6720974050300751,0.8049640525897058,-0.09559960925326913,0.8853468880938641,-0.42766697862186565,-0.09481377080618794,0.14971653670712262,-1.6174546395172904,-1.6865137974299071,1.538762272123067,1.9816459348309263,0.23349175311282996,-0.38125588674379074,-0.004449066331255898,0.8332444087417831,0.7681852847931675,0.9837701227823797,-0.7126852936574519,-0.33966787221703254,-0.5498345961502262,-0.8052927821781821,-0.2292880667007171,-0.9201927158517855,-0.39961755223660517,0.4730784168113233,0.6253981628069853,2.02957430604502,1.1297076178619991,-0.23526983203201315,0.6054581887519456,0.11918899014944012,0.300345770120841,-0.595638819497035,-0.36410731405014046,1.2960137282064625,-0.7381713094601065,0.21012140643499697,1.7758323956646014,1.6947114708274333,1.6950370031145285,1.4439399288311,1.095595042046132,0.5947852709904994,0.24523740527238191,0.07265288800870011,0.25204066994258667,0.6290190660174502,0.9944377272272185,-0.7691086225408097,0.847264679368301,0.1383909608184468,0.587087337315435,0.8356045031138641,0.10169986848166102,1.465981403315186,1.4064649882556934,2.4941521325027143,1.3316259774289796,0.13860500074673354,0.8220150287838343,-0.5102156650406945,-0.08607184569921257,2.1082254048060225,1.2709904874341693,1.1943351021312123,1.846669779141429,1.1381435836763292,1.502905486383293,0.8227293496412262,0.857459560696153,-0.452798900896668,-0.30802974062117267,0.2537307516511797,-0.4746000832210986,0.06045753611480609,0.8502274358230417,0.4024328937761601,0.8570817769345038,0.9337857070414727,0.931864353540532,0.5606063189540915,0.5869394277407642,-0.3149089387238059,1.5047631906204597,1.1542186479048941,1.8588566257159873,0.6472558922912972,2.530419816829828,2.007478762587984,2.9266673048227227,1.8026709285104892,1.5168796130899547,1.0697800984470924,1.2838654148354636,1.1957210259328128,1.5115927352188343,1.2228189002462833,0.5173788664915442,-0.26326979017751,0.09831717477867948,-0.8004519389484299,0.525212844883546,-0.7749344006885825,0.9050810768697723,0.02634953871245571,-0.7080536599723108,-0.629953339557249,0.13570164229794096,0.8184060870881028,-0.21093360586826113,-0.2584115682954153,0.47184127773235185,0.595231167392268,0.9407148882971851,-0.6139578870606234,-0.10319588501187557,-0.5923183981054244,1.2095560450237646,1.129787389551996,-0.71261024220922,0.0748618910797829,0.8202658592281611,0.203946258465794,-0.012548581936458926,0.5874947796329424,-0.7014729025026935,-0.08821387360434706,-0.9542252034954741,-0.6551539148931949,-0.11924341989000453,0.03660553142394418
0.436302469456868,-0.6656128519145179,0.8426426016288886,0.7350894181076177,0.679978349692576,-0.6840159174107092,-0.015603165712075429,-0.7449799062067426,0.7269935312955667,-0.7644823993442826,0.8832902649727146,-0.41889772764664546,-0.611152863960835,0.2492401743015909,-0.7208838489043901,-0.4207070104898324,-0.6737592578245166,-0.014447870139361108,0.7970705252801566,0.7362693942255645,-0.8658868219552713,0.16694921558576592,-0.9201791997447306,0.9086525137563701,0.12335757685201965,-0.36840432055805983,-0.6124983305414855,0.275319537077217,-0.11673198138322571,-0.5568830254145061,-0.7958627929347588,-0.4667340214561133,0.491189919173282,0.9995386546453074,-0.7877113075891805,0.9273534733537568,-0.4116057846406813,-0.6296601707708339,-0.7869669236830511,0.09801134656619437,-0.29685293326124007,0.6230644033274986,-1.1829073655491353,0.7464509931792089,0.472449846431947,-0.4046349319201786,0.13615162351357124,-0.18469189825282037,0.2934449609765018,-0.6690246580553758,0.24421171836278674,0.8519455157635976,0.36998887364713506,0.09399393663841549,0.8657028512180345,0.47361783276380187,-0.7707807403205125,-0.10590412853434139,0.045354149147145466,-0.769886472043994,0.05614714418430734,0.6930028404723456,0.7162363670835284,-0.7211147803298127,-0.1872670122294207,-0.6049392440382138,0.8116079879351876,0.31398711189451833,1.6230996460039018,0.900059623950214,0.3675336110508372,0.9028500945266257,1.098475360832093,0.6458689495769666,0.33892597370406685,0.42529099416339733,-0.010281627320662573,0.2799816833015846,0.07549346091674801,0.13664092137741032,0.14150555797039407,0.22762609683464977,-0.20729034418458392,-0.4808895414744696,0.48189718270208814,0.5939782729655394,-0.2546605138427169,-0.20313317378682447,-0.7296133838644222,-0.2612200262908909,1.124881071546288,0.20314982157535186,2.0019534290644985,1.5963559266163367,1.600018692815561,1.4687512251105939,1.3310147695439147,2.076524921615128,1.409329482620956,2.4601725111327646,1.3168091143366594,-0.13773977574644186,-0.09540335228164479,0.88916309965552,0.18473021871782108,-0.42594165384608873,-0.7337005942848794,0.3805338367339341,1.114651637188473,0.046712542804599994,-0.6403617836629002,0.694579864597936,0.747447179009842,-0.47853237846999896,-0.76295677582188,0.3344684093175524,0.30151183276933774,0.6167525187527557,0.5524520048888865,0.6744803635683415,0.6983692225252082,1.8352007965770594,1.805333467667168,1.4379561390745987,0.7787669389522877,0.6489525630765309,-0.14245151042882798,0.27672739734243923,-0.15185096719920751,1.3727603718746826,1.2869919575705535,1.0074698196256584,1.7803000362594321,1.2778666910413274,2.1784488752689866,1.60541884589695,0.20813582973338904,-0.5197077334348156,-0.10717063195646594,-0.15836248324045565,0.8658770129796556,-0.1522921372554884,0.4768634545370128,-0.4871951746510031,0.416693040008323,0.2032831007895364,1.5214664158180773,0.4952707957629315,1.0235009169499445,1.4647777545634442,-0.24631816629387698,0.18703021572162265,0.6344564317561842,1.5671437220675417,-0.1306061926104815,0.7133632220906253,1.038693935596067,1.8374094212279082,0.9934743472674663,1.0749610151649174,1.893909432268738,1.0290675757702754,0.603892152355381,1.2205391113268924,0.4673459798013844,0.2795095452657165,-0.4989406574408132,-0.4214221540465557,0.7834246463894319,0.9215454154996005,0.5834381906125071,0.948264846372157,-0.43962661890388677,0.5546404545425627,3.0260195073065215,0.444956280324668,1.316653863365465,2.0797236324269894,-0.32489903892107014,-0.24385999983047363,0.7161921180834734,0.30866965829684556,-0.3970638539207535,1.0211789012044596,0.4340675699240079,-0.4027083076468819,0.14742693771564275,-1.9533718068802217,0.6923541705969031,-0.4548284413748967,-0.1314582118772422,-0.9404381956572981,-0.3370201974357421,-1.1308787098398976,0.7125372972534482,-0.5448781037375291,0.02505608389282224,-0.8347428163041294,-0.6715217193024092,0.34885271243517463,0.7680721824181233,-0.7453160746429983,0.7109963843944597,0.5331052434462749,0.5165493163799475,0.23328974302836805,0.8208903016754239,-0.39816839122284364,0.6658616514992901,-0.35488707512905615,0.21725154593459395,-0.9372507646779341,-2.0316379984216626,-0.3522574525989235,-2.065461245270996,-2.1706359925471137,-2.699402528908323,-0.8389210110846446,-1.7177645162883437,-1.489921277040874,-1.0291023818474236,-1.1917040917650341,-0.9246746149230388,0.4743831141270398,0.2885371668172812,0.5268053420035756,0.3641184640392642,-0.7025501407606398,0.6767878567024058,0.8731511924982437,0.5886048929145472,-0.5426689400309936,-0.5345323891785301,0.39006702254482717,0.6693413552572128,0.7366804016168491,0.4313024237777803,0.8645575620799302,-1.1584744337610493,-1.0766189836377853,-1.2583080436039615,-0.5379212095162874,-2.025134223997459,-2.116826821897291,-2.4428099037347604,-1.6627613450337553,0.20613113757818693,-2.5223720869538044,-1.6492047228542337,-1.217350701570609,0.5870660292475838,0.816122811095475,-0.2229350840334134,-0.5221119631230308,0.7080178318237962,-0.45037875262228294,0.6506306348265125,-0.4026884017739571,-1.096005730207471,0.22640371371551282,0.9583344191046346,-0.2963487040405663,-2.5876567839539444,-0.94403114523269,-0.9366290236553592,-1.543630422542849,-0.4075461718560768,-1.2307326325425922,-0.46881741894910356,-1.0459111762773199,-0.6453417277213824,-0.6168378947576083,-1.8089173746498708,-0.5936327944034057,-0.33259110758753313,-0.6062666845515973,-0.33514804618127964,0.17064870281445726,-0.6024955272003025,0.158867393237391,-0.578793576620801,0.9069954004431479,0.8533960635624,-0.20867906799226513,-0.47279634098692663,-1.165590482076167,-0.5926422532200195,-0.4400413385190598,-1.3595091414077047,-2.4905063060460866,-2.9081398729332313,-3.7475406419086426,-2.672858751262573,-0.32312668499432595,-0.3779060102053906,-0.6929052156284452,-1.0545838517084511,-0.022141538142310912,-2.402144029411202,-0.9969452507406968,-0.10777131519117607,-0.833465773431622,-0.39843847524780324,-0.919604030428883,-1.3674987508665868,-0.32822493724948065,-0.5703822683817685,-0.7937796364002391,-0.3895268655209868,0.33964284526231114,-0.10630346095014824,0.6116778086105774,0.3422393432209706,-0.6089703166314394,-1.2086440246740524,-1.7243416542648202,-2.2241237318076466,-0.39088579934601847,-0.7031185094486667,-0.36932018451442733,-0.31978020855915124,1.3984486770546933,1.6579644271578298,-0.22382799844107062,0.3344880184311033,-0.8491035359146715,-0.31980135534655635,-0.13743535896424253,-0.2764581497909143,-1.0109317767442778,0.29765649035914427,0.4147768768522216,0.07598990262129869,-1.4051948278312625,-0.2789563138660878,0.37068783069074923,0.4646278237468067,-0.22249682355062136,-0.6348299156013475,0.9103325276714213,0.4830796018234682,-1.3618063598511738,-1.9847584012881396,-1.3693292454159935,-0.5668855340410084,0.6566504044358314,-0.30126664428725175,0.4450562477599363,-1.687071110776807,1.6257334606856721,1.4514771011581793,-0.11658443366697221,1.1411690073770704,0.05546164729000464,0.8939735511346089,-0.7264082782215129,-1.185816519915803,-0.2497175059718675,-0.28718069191946544,0.09079285352878064,0.13747243265446624,-0.6163216963667871,0.05703941129069936,-0.2028066367666769,-0.9816697810835716,0.17535889296171708,0.8702176098755461,-0.8149714848829765,-0.8251660604146968,-1.8558488956054664,-1.2145609981965786,-0.46351777345742684,-0.35017863965269924,-1.3674988994355428,-0.21668176448647303,-0.4611401495353544,-1.669002373251762,0.7977928522627632,2.2263820476644742,-0.4136564144473934,0.17651211560214658,-0.5887306710518397,0.9177738729736796,-0.2587358680576382,-0.9516805629360805,0.9314833611640847,-0.589577148012744,1.9714805934850443,0.5725570139355809,0.759713279977577,-0.3712138408825665,0.7547242466655385,0.9798689359071189,-0.8537442343573531,0.5381991144946173,-0.38064557825925,-1.4109204693406663,-0.3096475700219421,-1.1190069143819057,-0.4405771103383792,1.312861199278348,0.8141427800951729,0.23012038901008236,0.15778637340912308,-2.0412837812720745,1.0257337206486596,1.625616637534859,0.46624347668169813,0.6379292814662276,-0.3689270515358587,1.9147580842393017,0.7061750810569055,0.35197787924244234,1.144391754797763,0.46243488506098346,1.2014463776848088,-0.4132270452053352,0.7220468606716887,0.9654455385798201,-0.7682058363054007,0.9392037439045541,-0.9097941730055046,-0.06584255525483572,-0.5229547243645158,-0.7227674431174392,-0.5808598557786868,-0.40558701971437144,-0.2659325831958042,-1.6170948661063864,-1.0425472565852372,-1.0667505292746635,-0.1435159480256828,-0.542979931348248,2.0010331261570884,1.0873116372111258,1.2899033010643202,-0.3905187759425345,-0.5325807450134604,-1.4516821830308628,0.08861357870361782,-0.1616723594263152,0.9203142826780358,-0.4634365588760879,0.7737235323372067,-0.4740128411638444,1.3074832757106531,-0.6309810924351469,0.8804259134715968,-0.9350067423131716,0.5863183850851447,0.9952562203221538,0.19240116652728056,-0.8888653583497955,0.24641930446417584,0.13707703734251456,-0.16369884148164296,-0.7899148470198085,1.3029984679471807,0.031448745236213715,0.11656090046002966,-0.5612116043449146,1.857395772997727,0.9067471781381106,-0.16403780614598795,0.2883797919546009,-2.3446735377460737,0.3135630752678858,-0.2888044724691349,-0.16313873793147857,-1.6438633115051597,0.05229769275662365,0.41791993353441415,-0.14378016191198847,1.9019856195749791,-0.25503486687978527,-0.30695858845481144,0.42309652839658574,0.8781250962547058,-0.14907943023742315,-0.27825142760278715,-0.5135435898576719,0.19117484570214693,0.2600694594877245,-0.2764438514774868,0.3265886735611912,-0.2632447146499754,-0.7760700572424696,0.31178536225927705,0.043770477474481664,-0.5065225442342346,0.6565705851031917,0.7903155414053465,0.24326131608847612,0.17847257105617395,0.6659214907581951,0.12770871311933654,0.24966037456741494,-0.8384128327103998,1.0664224166538487,0.6843469111508567,0.2158551177252758,-0.39927640749551313,-1.004142331085596,0.18210589030491175,-0.9191312188785272,-0.6411510123414649,0.5688500162433447,0.0350489898811067,0.24799176836772602,0.0701808614427113,-0.4429873237446506,-0.5941100703160602,0.47126428843207896,-0.21003856346449312,0.27856820168013624,0.32317608892411687,1.2971989399029205,0.5847753271295132,-0.9373795304011333,0.20480777688745877,1.0811304507018096,1.657991601520438,1.7039892556511458,2.427542435717,0.7617073918616892,1.198394388054258,1.056022888374223,0.5199212159977783,0.02946738964913291,1.6295112332210215,-0.38304864507647524,-0.25572830459649865,-0.8611251328563436,0.5862794341397302,0.37205480669787583,0.09624329682321109,0.576695490637638,0.7269554384791346,0.2848913137489314,0.28029841075383555,-0.31504230989095255,0.45930539394291753,1.1361669829387353,2.115803666111516,1.240690520275004,0.7213435734303258,0.24236470504673388,0.6531388587863522,0.6547155177586108,0.6318667017897158,0.08899334145157008,1.0205516680535212,2.142455212124139,1.0620867166225387,1.4972934004415879,0.5366442612229763,-0.541293016982542,0.28916756309241204,0.3460628647053614,-0.19456856264179598,0.7220288723646868,0.3724943653061152,-0.1513132398006411,1.4308967641063468,-0.3150428087425585,-0.1682957042612115,-0.9623267999543541,1.5206437469577943,0.5679937206948016,1.9589275489535753,2.059196185472129,1.1758761805971234,1.4193876210646674,1.1179610988895017,0.37573205648057495,-0.45152686008581655,0.9017471755509348,0.6006081467480032,-0.26170969473096384,-0.7218012919104214,0.4793988128536168,1.0087347865309264,0.8474768881787311,-0.7956800090376824,-0.8854486328915206,-0.15982200940091093,-0.9890639953687529,-0.7083783361154337,0.8415842415373772,-0.7566478462359364,-0.3960196603248102,-0.43344972599219384,-0.4602296903968278,0.1743084656617365,0.7772740000339108,-0.04800983607314792,0.5125009571217062,0.1588694739587904,-0.4201807716197381,1.383101481250071,1.001102275996376,1.6453511525032822,1.5185725572701814,1.2678575395087233,0.20791599014046008,0.4806885844865879,1.2666302153261,-0.18704505946683775,1.7041822026509144,-0.10035720759568537,-0.3049345651508148,-0.5449090153358307,-0.7612616095518352,-0.8300990760039211,-0.8520747131179764,-0.6659059132259708,0.781468575501082,-0.5658806186929795,0.9894966972938052,-0.547465965699869,0.3153782789900801,0.8582500767766784,0.5755604679111187,1.1464473662469763,0.6981481769000121,-0.31859556562370145,0.9670555825852595,-0.40786500457552716,0.24667570052661505,-0.43897501925189486,-0.39168769691379857,1.2569054066350742,0.6832232880939508,1.24110443547995,-0.4222777644944291,0.031831302455463,1.0039912588335778,-0.7813989400893936,-0.7552375563896243,-1.6416124177358833,-0.7171896093519303,0.07980887111325374,0.11675922610516506,0.9378976828726665,-0.585042449291993,0.7828638104819283,-0.9244752020703721,0.48609718665800733,1.460634723839816,0.8097824526819825,0.6321899824057661,-0.04424300912985969,0.6966497150381593,1.2109948313237107,-0.5465181738793095,-1.14182939126662,-0.5073448165536031,-0.7674020555629583,0.09213623692920658,0.5866435807320968,0.22470226342660216,-0.9295422790805298,0.13717649219047875,-0.27143463508796556,-1.3917763171372048,0.09704589643190262,-0.9010790481208029,0.27593475910490595,-0.7654011845249752,0.5856137415787046,-0.3565712695061877,0.006283588197008694,-0.4990474870496575,-0.40994076810022695,-0.6171955239451498,-0.448046538211155,-0.3637312766725016,0.1059822925016971,0.7468497639727623,0.20631451430401662,1.0659785284320047,1.9291333366342713,0.6742744629791111,0.31904637970724764,0.18556924543749653,1.1162682571980966,-0.6662550918752886,-0.8185428101881511,-1.1884807237693236,-0.21268505255083214,-0.703126591070819,-1.8524745452600688,-0.8314069691931002,-0.35942074776216887,-0.5013024187430551,-1.174089285924554,-0.616521625124004,-0.559294286826038,-0.1260804698459458,-0.009972217294908603,-0.3914671573995314,-0.7596496101199555,-0.45101193846144255,-0.6616260720243778,0.29107237221342114,0.5268157480282447,0.5246054524842387,-0.5397754756743215,-0.34491806756854143,0.511099670570892,0.4110002367041951,0.39543659344163123,1.5696004369427636,1.425797647398738,0.0031700288887714107,-0.19199064881227876,0.5897780872690802,-0.7172196913950226,0.4033901777377518,-0.4711673614462129,-0.04564115095107037,0.12410643163900457,0.14138362424679665,-0.27309314753782443,-0.8246765421557599,0.4013442590503548,-0.9906114198146954,-0.514678953615799,-0.14857257363075949,0.18038711870954738,-0.3879748205623581,0.8060355989683439,0.08882580866005474,0.012305279995417806,0.3393297600743025,-0.3541094604343168,-0.440631810289812,-0.5382503980798676,0.33138157254132017,0.3117126758299619,0.653603242029285,1.1004288625298104,-0.07713335311359219,0.11150262946904672,-1.0996811345930138,-0.18770347858797443,0.7572288811422542,0.20095198228053235,-0.04240439829502492,0.7519198513120571,-0.37517009529752215,-0.6218065542582109,-0.8417590809264469,0.3750185776289581,0.08741957027461944,-0.2541072867323366,-0.9153292822168966,0.6350425475774375,-0.4615195518224702,-0.34531694960311676,0.2958786415600895,0.2832464440999125,0.19512644388036945,0.5152823983981776,0.9599468084625253,0.23651035089760428,-0.5690655851644125,0.5355283822383332,0.25329437488428447,-0.23867005424623777,0.479915387373163,-0.6828703134511237,-0.0727859586017634,-0.07454020939691952,-0.7976517450427032,0.19916295570057804,0.10715766355128457,-0.9206245591715235,0.940818138245073,-0.039393048817449185,0.3852988034069842,0.29145803714713314,0.18306165507394123,-0.8422184063204547
0.2486763333479829,-0.9259239486168342,-0.016761462768178248,-0.10910258427282704,-0.03393808500925655,-0.6675712776719362,0.78400287931034,-0.5034064966098504,-0.04837292157063655,-0.17698552100765075,-0.8464810284540392,0.6102187360760003,-0.4235597090746374,-0.8395784071870405,0.28855567887776984,0.4477275317669245,0.03508390195513145,0.4747892703370449,0.425050475797917,-0.8291343519652066,-0.6901553452214273,0.2877718572027197,0.27568429468814326,-0.975612436481091,-0.8279128909486109,0.6143504441332912,0.11452816716149306,-0.3303717285108967,-0.41624764228715794,0.2982277171153396,0.28846085835812096,-0.20047271598470529,-0.9175129627879209,0.7594700713994053,-0.812435216562319,0.5858025618050674,-0.4677585152827646,-0.4200302774174013,0.5041159370299508,-0.052680065042435206,-0.14303839808624022,0.5815398944071741,-0.9949436910542636,0.45834261083269084,0.6303004870646254,-0.3616630832155144,-0.9146984679427981,0.9397694576801229,0.23710659462412856,0.4784265887363316,0.4562025607684331,-0.1537443104150563,0.10024940204318122,-0.3320643228093514,0.12657593773612774,0.2529499027712654,0.3940070120350845,-0.7836587023912729,0.6865025667021433,-0.08706675243752594,-0.6427803625668077,-0.026311074319012636,0.5851076645082853,-0.09616295231686543,0.6576900636115768,0.7024819103724516,0.764178142718367,-0.5735068620368401,-0.15962286345839594,0.07190596136326483,-0.25103468619353686,-0.5960812576174144,0.6888239796238445,-0.8739801845683148,0.9664873350295357,-0.8409705039467046,0.08563692228339781,-0.005043239810446949,0.3752044471728132,-0.15535749756410658,-0.9549392985056236,0.32823126741973385,-0.9414118718340376,-0.8477004320171708,-0.6623621132079398,0.869863702991202,0.9152931391553982,-0.943555668465124,0.46107166004742905,0.5479345591427341,0.21826166337156128,0.3541536721368599,-0.88207239035203,-0.4472485753742373,-0.25969215798009704,0.04727293945777395,0.8791154868143687,1.1406840299187226,1.3289911173331383,0.5718076979109347,-0.26543714795880863,0.11982816738972904,-1.0935986220443814,0.8451984151890279,0.1100073034744053,-1.0260074109249158,0.631251429159428,0.17327654293721695,-0.7520211175203237,-0.9226428404981986,-0.106033382758418,0.6845031815853337,-0.1791621030614401,-0.8429351137975619,0.3139543279158475,0.3162910367308404,-0.2572245340292988,0.27604732793134185,-0.21687534573115674,0.6646125420668331,0.5524568554683156,1.3848236882243556,1.788863989933028,1.2057512743588428,0.0828034795194838,1.52349515071808,0.9308197958837661,-0.2897288916910772,1.2190180915337459,0.8624049688129982,0.5246633957869091,0.09576100986141178,-0.4630525138537055,-0.5814483667843202,0.10410803468305536,-0.08046925090549359,-0.8301457800934462,0.6486987124843766,-0.12712776009777316,-0.8731093451562784,0.13690198534786213,-0.8226314901286067,0.09075730752467134,0.01655580409216122,0.3439608109907604,0.6436174407714359,-0.34681975908969465,-0.3272422357264123,1.1769655797058107,-0.35074373301439954,0.2348142745032121,1.0164287214481387,0.09902173013740193,1.2042518531190816,0.02218795041940502,1.3050791140508042,0.9751333788414254,0.7507738910356102,0.632559838799302,1.002976886247435,-0.5902231012890883,-0.7682966319438512,-0.7498681992633961,0.7310083898374817,-0.045841662019844555,0.6298754172702165,-0.9534004525790011,-0.8963474741053786,0.03700686815588927,-0.015193468939603216,0.731715295633431,0.1634925026265338,0.9937590287716491,-0.3509263355084533,-0.08164196165669925,-0.24498840427309956,0.6406495506597818,1.1758394023402745,-0.14421443190632802,-1.3450942681440021,0.23977889989035994,-1.1921056224205426,0.2610532027635143,-2.0709870299222506,-0.9291954446758258,0.07999159647285332,1.9463671835632474,1.0096680552784734,-0.43014031600901664,-8.246086734684925E-4,-0.587966999913992,-1.1898771250405327,0.7621844397337265,1.026607775933136,0.177018353267197,-0.20829482865499044,0.3947121852312154,0.08410894170997966,0.7590531222177057,0.7589968563893085,0.8851203387325262,0.7733596479822953,0.8454931319182752,-0.6325605919348277,0.31407234031335585,0.5635743024489293,1.2870640701539353,0.8997509972840478,-0.3847976761814313,0.8802907325060948,1.3148798956818868,-0.93800372900505,0.7179068225032843,0.3824467580676906,0.00887538395613594,1.2407127150857789,-0.9400290056453473,0.22755843134299425,-0.36877301595016015,-0.26842655824581146,0.4524392438520744,-0.12972129612960134,0.4475353198479268,0.7777673621446878,0.7195715230155216,-0.7486700268467118,0.26099304532481826,-0.926435130182736,0.32833597445367235,1.211369124666175,0.5829764966323496,1.3459999248536412,0.6817680508596218,0.6292812971207162,0.7164433965209841,1.0280504998028777,1.189887700919964,-0.160259759739695,1.0247703504017789,1.7997076834244263,-0.47460045667306333,0.6446306747172942,1.985612474800924,1.0819380740717062,0.9985322969622673,1.6727459039232309,1.0542508362435967,-0.2045944277911201,-0.952815264543414,0.6134493788101699,-0.9176059917177011,-0.8584926229877019,-0.6726288453202844,0.037270444980182595,1.0950228958106745,-0.3983026237268538,0.17643208926870474,-0.2022495051744754,0.6500960573587296,1.6287648307701945,-0.5648074056932114,1.0885351720078371,-1.4213402801089672,1.4427102229429065,0.9447662500143283,0.27968399130192634,1.654719042782404,1.2091389892418325,0.9138608653890209,0.6494645881441302,2.174612924873831,-0.34232877029723907,0.5875299313980555,-0.4143155777224772,-0.22697177219095918,-0.5087593236947939,-0.3087847920622825,0.24215510678181512,-1.0640431423974597,-0.2782336646595709,0.8789209241066773,-0.31295146696293535,0.7782513714212345,0.3716044211959872,0.6304975682138619,-0.16630429913531905,-0.6086424192585128,-0.8695238812827997,0.25637880052582307,0.6129788201246084,0.020661381744727866,0.8858858039477618,0.9181075727746549,1.9302134797857424,1.1894932240649663,-0.24467618391426255,0.6379319313936307,1.8376332160785154,0.862394132965879,0.6646907477940559,0.8803691049771833,2.395453327162922,0.8256464278413654,0.6250044485821441,-0.31680113504446555,-0.6370563368429807,0.02014922767305809,-0.11272550036926776,0.04012200226126805,0.748587367788025,0.7289441197047705,0.34806254998052744,0.5225579493745741,-0.11561249763971823,-0.6632915843818152,-1.3086317443348727,-1.4944444365013463,0.9756179493879731,-0.2309590230912265,-0.16164530951601536,1.1925927333622128,-1.0132551008831925,-3.2637197792505788,-2.855040078812903,-0.3585908790440009,-1.12207366953939,0.8161694967346658,-0.8571548860937217,0.6535250288717249,0.576559692773981,1.0664629266309664,-0.9556308534102398,0.04112881878992867,-0.30749947689555407,1.091575388206242,-0.29643897539449904,-0.3037136177084891,0.7922202805628684,0.32156278633507224,0.3690656981457953,-0.366188528576419,0.06881716618546657,-0.9231160370562261,-0.2809466019392299,0.20510211057096697,-1.0085401391633282,0.31828764389834807,1.0579094088651035,-0.3406995998588562,-2.8681940586953307,-4.683774448019621,-1.2164119338354145,-0.9097928518724341,-0.3484772052565158,-0.6124926285346476,-1.2241345013789493,-0.714631044192434,0.1362562566568239,-0.5144841586978804,-0.33232500816586447,0.48055615371763,0.23803795080419166,0.7576757050979154,0.8417223933529934,0.06841314376938228,-0.551629455694905,0.2377096095747429,-1.1056081680101517,-1.2236986050661456,-0.1480773191618044,-0.8024755972456932,-0.1611948648136253,-0.057713892272376575,-0.15331397743919054,0.7421809820357194,-1.0237404270229793,-3.256165767573154,-1.35623934159864,-1.589805677254105,-2.8501478621814167,-1.3559619966045449,-0.2315004962160521,-0.35976569122331326,-1.0259965853434863,-0.9242559217362813,-0.5089490769850049,-1.6043971796177146,-1.3582154334391165,-0.020481868961754014,-0.8329940432116528,-0.5655269020267295,-0.5242738370606546,0.7356529429465087,0.7380012608118391,-0.3483461760401092,-0.6939690309580187,-0.846454025601202,-0.26062823323033324,-1.2392070501720276,0.8699647558068404,0.09076499373052542,-0.18928837992883996,-0.04113003905202808,-0.7955570420341703,-3.4494045551863137,-3.484606861967035,-0.8451690007387587,-1.105518930332555,-0.5619820569745742,-2.9214810158197104,-1.4439102642737147,-0.0019446870971004246,-1.8807073971872583,-1.8834224705477163,0.0352213733526941,-0.37978935908657485,1.0895089240205378,-0.6811509462961057,-0.09101359185775194,0.15886253744100148,-0.7586173501826011,-0.8760020399728573,-0.40378973864751283,-0.751362829366847,0.7341454364558412,-0.8085594641059062,-0.7123578013404674,-0.6115198419419124,-0.26533438910877544,-1.6524216670546414,-1.9185977692046123,-2.5897185737321418,-2.522289496600711,-1.942397371615143,-1.02694838637406,-1.0187013098052358,-0.48913585749892347,0.011363438035657236,-2.3029547348161072,-1.1728954869455346,0.048130642752198256,0.7294855401486223,-1.3816048331551165,-1.0826733071046633,-0.1845149412284888,-0.3068014549320641,-0.09103338408424594,0.23812715412181734,-0.4384573705980087,-0.3165522768872493,0.1827777794030034,0.8918577232924129,-0.270447713149189,-1.528602719930617,-0.8280261536456807,0.3600346227526364,-0.5298612461870785,-1.7401120221184456,-1.1172209107012756,-1.453076612091993,-2.148661471752213,-2.876663162064096,-0.6730109678016676,-0.742370192846815,-1.8059104024768744,0.3812930318708207,-0.4007380408790897,0.4386084345685585,0.4789549136886288,1.2282599192744645,-1.084610268152358,0.06743778442026324,0.1742218290411493,-0.18968404739011108,-0.25388459483317843,-0.04025059561399985,-0.7655119437480362,-0.714235745460466,0.6790766765529571,-0.19266697986962383,-1.1824599739566348,0.07577201822779843,-1.275679116049779,-0.5961073975016715,0.011845351013939753,-0.6135054542932121,-0.07656762934162178,0.7191450504978911,-1.442262205269025,-2.4032376321141675,-0.02517977470144407,-0.6586041600797113,-1.2643938870685747,-0.6683553408873097,-0.6028424621133711,0.5292938983426354,0.43985811584237217,-0.8123560992873428,-1.3787661046587532,-1.2580074790065834,0.04718188227702421,0.6995014314717797,0.9111121866038171,0.6556257109968356,-0.5144332115352794,0.05250689517103349,-0.7225366612315626,0.15634030591812975,-0.8456491088210164,0.24015174834920902,0.07845249823727515,-0.6605025307433928,-1.122221502207315,-0.48537803879718994,-1.1460120711422912,-1.4019308665971622,-2.892467272078869,-2.066695722192998,-1.7532697107250677,-0.9021260053648432,-0.35592761216807683,0.3762999929160299,1.7509956100428463,1.6372396329618557,0.6830902881407703,-0.7593118117210667,-0.9915116865338559,0.13251032563403006,0.8190045557589306,-0.38111606826171046,-0.8717099798279786,-0.17343022219090998,-0.3198517773393678,0.7552169984535336,0.7872292557812491,-0.3558777065250307,-0.4857156450321646,-0.4884877089612015,0.5919461537506862,0.03299947115595371,-0.33533070136476867,0.49042064091649157,-1.3435639083594006,-1.0130658331080145,-1.3731792904412996,-0.3938920632811272,-0.7097595198074684,-1.764800346683776,1.1498471714068714,-0.5178490702867438,0.5378871058459561,0.5076297730415019,-0.44708767970969426,0.10797093212849665,0.159783361264378,-0.5886481063266479,0.11494246105792315,0.40257820167274505,-0.7355184530384953,0.23256594006780537,0.1843364665511602,0.3847262389511602,0.6016268958553692,0.02731886756007106,0.21259540269558416,-0.03809161231725543,1.147442005474156,0.9402672016971105,0.7655094624608784,0.18012849517069332,1.2094741742874962,-0.26506111911284547,1.53856676391785,1.215483481656048,1.3516453828371098,0.27552912993602824,0.47164564801806064,-0.27068871601424255,-0.21820436262568876,0.2794074461232094,0.3923773043266317,0.20739744268610627,1.3689163366447712,0.20954837250714686,0.13006674554054842,-0.18448189029283732,0.5057740761815862,-0.7296968788170579,0.20100912408952207,-0.3149154382274227,0.9387644910355857,-0.7862169912703286,1.411256129591524,-0.0041907980554419,0.5240628722385097,1.275691951506876,2.499268545565218,1.9152298880919345,1.2005105052735576,2.3314166450090408,1.4729444767146829,1.1930059925898973,1.4269994319925448,1.07930962028775,0.48413809920925677,0.8691355106170854,-0.2513496448517258,-0.002811339843023943,-0.7905424971025686,1.716332762637089,1.8390346597433729,0.3060858343707614,1.0568204335123659,0.3249048464301859,0.6233628677985888,-0.10671428902726743,-0.13593550209692729,-0.301051159951752,0.5734523540604376,0.455198228885964,0.6528631460448985,0.576727707321552,0.8748224535886369,1.10222588427055,0.6898546998847664,1.5945370495392324,1.3748144439798777,0.3155057777643527,1.2386841306538952,-0.49686544175009156,0.7864307115186321,1.6468586079304983,0.137664581873856,-0.2865758846521228,-0.5787710147453634,0.6622623485626794,0.03632881713208034,-0.0791172174453467,-0.7393894655333825,-0.2956696963543743,0.8453608116333673,-0.8518075694557206,0.4877929956118508,0.7658029209304845,0.23461222353082056,0.9618995977942086,0.9917237716096455,0.05503650351083919,0.7125782584534759,0.5849076524166928,0.9220531896450694,1.4822109165376232,-0.8100152058737786,0.622688002586775,0.32590642463204517,1.9213456101023203,0.9102832731180595,1.008324594594039,0.40527612192157125,1.2460188490085313,-0.4374503700232901,-0.14300151573892736,1.0296398836255611,-0.2073746906813414,-0.2566047321546915,1.0648435416043074,-0.7612876380157737,-0.523526619863703,0.31627750488942163,-0.19522334445755055,0.01679840667135464,-0.9091283241841737,-0.6614746518971331,-0.9647939290997265,0.18676930333355843,-0.9061340737320507,0.7660956053344868,1.8944925170341216,2.218322535313637,1.5232607593597944,-0.37786427034143916,-0.22657421009262618,-0.8562946955688889,1.1149020327184334,-0.027640347970470148,0.1292788909716192,-1.5043874244627777,0.5000191488141242,0.4725096849613904,1.6162839960774507,1.3838725670525955,-0.3065112919245631,-1.3027655715012214,-1.1066119192504578,0.005994072403486502,-0.21311420747859883,0.6496508150222212,0.6780703164112424,0.6069794177588472,0.503505732949397,-0.9827623522915039,-0.44765264560070306,-0.2551249640479282,-0.5427787552431317,1.257057301814228,1.0081687639677943,0.0614533833548514,1.3814484799308795,1.0592183526609507,0.401593039429392,0.13566251312436234,0.6517382754749207,-0.17522657924699825,-0.4358151011411554,-0.6263644546543358,0.2195849875202152,0.7022591517487526,1.3432045580329148,-0.041966207674349304,-0.34933817883610413,-0.0065300726747191985,-0.5815139672215033,-0.9295792743422537,-0.39441210340695537,0.3679797745031045,-0.017797767788110232,-0.7575502351561723,-0.4862185643318446,0.3848064200535706,0.8778332442013594,-0.648736399463941,-0.3819058109979963,-0.37557066170646575,0.6405085602959748,0.03718894163231504,-0.9787274955539467,0.07931321579305527,0.9860398990933662,-0.14148330885060656,0.16234819413010854,0.19412130482605788,0.39720412054330406,0.5584159149285016,0.6953862232250578,2.1033647528908177,-0.670530935936263,0.4901280020982384,0.8948216654837359,0.2735005925526607,0.9982871181398295,0.10983436201313182,-0.9745673645922789,-0.5509997223968021,0.3884713258882974,-0.9121212298972448,-0.4398263948487755,0.5923014302137173,0.8389944362013682,-0.3462019210311187,-0.25261476327917953,0.39812880242581306,-0.8291758996013243,0.44704356572605486,-0.5473315038306794,-0.0631653471658303,0.5152585050989922,0.8390784557862375,0.10313313450719129,0.8436093177215861,0.8204362226852532,0.023171046710051293,-0.6060920782926008,0.5511284130232168,0.9453218241590038,-0.8597381445303671,0.10347229012995784,0.42701619545887953,-0.7634599938268081,0.09064042238347546,-0.4270791631597332,0.8568044659641587,-0.2070881225301655,-0.5325307275993112,-0.2463570167832383
